Capas 0:
0.01946282 -0.00541694 0.01825977 -0.00500279 -0.00022662 -0.01865811 0.01362178 -0.00715776 -0.01252810 -0.00212062 -0.01298423 0.00510064 0.00322328 -0.00878506 -0.00338633 0.00591263 -0.00124131 -0.03058964 -0.00784224 0.01345773 0.00622828 0.01046833 -0.01157043 0.01307777 -0.00187274 0.01323205 0.01013969 0.00122869 0.00467819 -0.00969746 0.01403135 -0.01102752 -0.00487957 -0.00240970 0.00801204 -0.00164923 0.00439537 -0.00793184 -0.00644545 -0.00391060 -0.00558622 -0.01021603 0.00830406 0.01270007 0.01270894 0.00051159 -0.01047723 -0.00055312 -0.00462244 -0.00108643 0.01501664 -0.00826946 0.00951554 -0.00088926 0.01117890 0.00719853 -0.00618571 -0.01265788 0.00298016 -0.00671215 0.00854385 0.00975334 0.00986377 -0.00465851 0.00425116 0.01085398 0.00019426 0.01694173 0.00127779 0.00467908 -0.00220114 -0.00070768 -0.00665580 -0.00247709 -0.01538596 -0.00426966 0.00783831 0.00759417 0.00252009 -0.02058406 -0.00857636 0.00031223 -0.00202650 0.00664161 -0.00012817 0.00323268 0.02159427 -0.00714187 0.01040549 -0.01907786 0.00549899 -0.01717467 -0.02419643 -0.00663213 0.00080138 -0.00091355 0.00273768 0.00457871 0.00851564 0.00496730 -0.00052248 -0.01896172 -0.00072353 0.00106274 -0.00324054 0.00154494 -0.00932613 0.00402064 0.00717401 -0.00413351 0.01702774 -0.00761491 0.01657055 0.00320987 -0.01166402 0.00532345 0.00894220 0.00521225 0.00090160 -0.00533722 0.01386952 0.00005950 0.00117996 -0.00446949 0.01481905 0.00758668 0.00190260 0.00684116 -0.00210226 -0.00246364 -0.00611716 -0.01152722 -0.00706381 0.01729366 -0.00435876 0.00806371 -0.01663125 -0.00315567 0.00993184 -0.00001316 0.00326475 0.00116810 0.01949957 -0.00419532 -0.00089777 0.00966442 0.01767061 0.00108086 0.00330885 0.00137504 0.00852637 0.00948934 -0.01021026 0.00101685 0.00616725 0.01157203 0.00733850 -0.01562469 -0.01056156 -0.02132391 -0.01293821 0.00446264 -0.00342083 -0.00071887 -0.00290967 0.00467859 -0.01435277 0.00330278 0.02087789 -0.00798970 0.00612929 0.01164609 -0.01720760 -0.01043387 -0.00579354 -0.01184018 -0.00350920 0.00231581 -0.01487559 0.02875039 0.00891338 -0.00015261 0.01209372 0.00383937 0.01415826 0.02729389 0.01107734 -0.01817334 0.01162915 0.00291301 0.00089526 0.00267378 0.00970691 -0.00957235 0.01928011 0.00122618 0.00464841 0.00509474 0.00430294 -0.01047334 -0.00577353 0.01064679 0.00699339 0.00856288 -0.00418797 0.00205320 -0.01649919 0.00668520 -0.01008394 0.01390579 -0.00045865 0.00072841 0.02603876 0.02414612 0.00450950 0.01495917 -0.00989185 -0.01459866 -0.00769868 0.00205622 0.00663521 -0.02176513 -0.00121962 -0.00785080 0.00531280 -0.01272903 -0.00904244 0.01319725 0.01314770 -0.00543890 -0.00244771 0.00074104 0.01332043 -0.00220525 -0.00396508 -0.00451988 -0.00735977 0.00621765 -0.00204696 0.00186338 0.00576961 0.01617210 0.00924824 0.00871122 -0.01081900 -0.02671710 0.00316316 -0.00425240 0.00715028 0.00079409 0.00765709 0.00306377 0.00543138 -0.00846003 0.00121110 0.00845694 0.02025277 -0.01700177 0.00703614 0.01155408 -0.00755701 0.00174013 -0.01211408 -0.01077181 -0.02515679 -0.00005911 -0.00793356 -0.00825779 0.02094636 0.03248260 0.00264141 0.01484992 0.01663530 -0.00969627 0.00170136 -0.00250788 0.00575160 0.00542619 0.00158000 -0.00675914 -0.00615348 0.00605879 0.00338897 0.00451005 0.00006657 -0.00226116 0.01200717 -0.00687289 -0.03715816 0.01150577 0.01688215 -0.00392655 -0.00840308 0.01476745 -0.00176319 -0.02396474 0.01744092 0.04029651 0.01853424 0.02155124 -0.02030236 -0.00546458 -0.00719776 -0.00267317 -0.01548939 -0.00903882 -0.02641956 0.00944467 0.00439776 -0.00584845 -0.00282140 -0.01500617 -0.00559187 -0.00179814 0.00444598 -0.00657041 0.00408574 -0.01089633 0.00845252 0.01112128 -0.00183069 -0.00980016 -0.01187451 0.00351441 0.02001919 0.02572454 0.03501705 -0.00344084 -0.00364748 0.00122029 -0.01974076 0.00489737 -0.00534049 -0.00336643 0.02934075 -0.02453218 -0.00478570 0.00552699 -0.02719238 -0.00417216 -0.01214370 -0.01422651 -0.02216660 -0.01157775 -0.00632986 -0.00260242 0.01687099 0.00067082 0.01721425 -0.01303390 -0.00676408 0.02177843 0.02723339 0.01881473 0.01176092 -0.01301717 0.00559262 -0.00412305 -0.01763501 -0.01604891 -0.00698248 -0.01049241 0.01273372 0.01268409 -0.00247283 0.02499786 -0.01003112 0.00018499 -0.02129202 -0.01129004 0.00239630 -0.00341835 -0.00229129 -0.00656127 -0.00655609 0.01788892 -0.00267336 -0.01480517 0.02655888 0.03653974 0.02262594 0.02385720 0.00110658 0.00355052 -0.01454101 -0.00846881 -0.02038122 -0.00038169 0.01494357 0.01163991 -0.00725565 -0.01028054 0.01034906 0.00415048 0.00502033 0.01181141 -0.01131007 -0.00941749 -0.00490950 -0.00964390 -0.01895289 0.00018094 -0.01799424 -0.01030036 -0.01209245 -0.00176534 0.02154596 0.01684496 0.02283144 0.03835486 -0.01014676 -0.02315502 -0.01424631 -0.00761314 0.00544622 0.00832768 -0.00104022 -0.01332795 -0.00372623 0.01112979 -0.00236384 -0.00274841 0.00703579 -0.00932230 0.00021727 0.01348852 -0.01423745 -0.01246090 -0.02195427 -0.01592553 -0.00663950 -0.01351698 -0.01036488 0.00991927 0.01456098 0.00773062 0.01549636 0.00247568 0.00307713 -0.00475780 -0.01832495 -0.01982233 -0.00663091 -0.02827038 -0.00824228 -0.01220558 0.00949484 -0.00858717 0.01043006 -0.00423718 -0.02439497 -0.01567670 0.00056205 -0.00687261 -0.01609545 -0.00973618 -0.00783160 -0.02064258 -0.01266257 -0.00813735 0.00351055 0.00884690 -0.00105729 0.01105293 -0.00405655 -0.01806777 -0.02234076 -0.01444156 -0.01067771 -0.02106843 0.00171582 -0.01307425 -0.00298297 -0.01555708 0.01393662 0.02602827 0.01004662 -0.01092663 0.01971803 0.00212967 -0.01323763 -0.01048261 -0.03332101 -0.01785800 0.00944825 -0.01334051 0.00807902 0.00333994 0.00106971 0.01142170 0.00247239 -0.00204441 -0.01791499 -0.01259656 -0.02572692 -0.01001801 -0.00371624 0.01290760 0.00114632 0.00284578 -0.01648431 0.01328100 0.00604555 0.00789171 -0.00581807 0.00994362 -0.01399549 0.00010378 0.00117105 -0.00674829 0.00069852 -0.00241070 -0.00712961 0.00261732 0.00484270 0.00268413 -0.01178598 0.02040004 -0.01389372 0.00418969 0.00383882 -0.00255543 -0.00690976 0.01089125 -0.00109708 0.00114676 0.00696571 -0.00658192 -0.01491054 0.00877024 0.00242767 0.00362123 -0.00536158 0.00657815 -0.00021519 -0.00179792 0.00681293 -0.01529378 -0.00607640 0.01256378 -0.00028952 0.01248812 0.00494769 -0.02281032 -0.01395581 0.01016082 0.00114123 -0.01492490 -0.01530792 -0.01724939 -0.03034126 -0.01322167 0.01870658 -0.02007373 -0.00759393 -0.01454886 -0.01068774 -0.00455374 0.01778638 0.00741288 0.00628649 0.01156558 -0.00333700 -0.00437924 -0.00563639 -0.00355636 0.01564548 -0.00919062 -0.00276847 0.00622291 0.00319500 -0.00604071 0.00651734 0.01227413 -0.00980392 -0.01695110 -0.00337198 -0.01611304 -0.02240334 -0.01457567 -0.00155079 0.01721045 0.01423770 -0.00051579 -0.01843236 0.00398865 -0.00271508 -0.00087339 -0.01068862 0.00460844 0.01091584 -0.00102048 -0.00229875 -0.00647394 -0.02441107 0.01264880 0.00755614 -0.00916928 0.02746148 -0.01584295 0.00912565 0.02617334 -0.00025845 -0.01602602 -0.00650674 -0.01521225 -0.02261089 -0.00559177 -0.00414311 -0.02053483 0.00407832 -0.01971273 -0.00335621 -0.00491744 -0.00394315 0.01387318 -0.00992181 0.00625496 0.00273928 0.01428405 0.00534707 -0.00687506 0.01645977 0.00733478 0.00166838 -0.01093248 0.01071147 0.01445104 0.00011629 0.03331046 0.00925274 0.00658970 -0.00413525 0.01233317 -0.01429610 -0.00486669 -0.00538370 -0.00095555 0.00912562 -0.00554774 -0.00334729 -0.01722422 0.00273754 -0.01379094 -0.00790693 -0.00335545 0.00907261 0.00335011 0.00421390 -0.01044750 0.01032611 -0.00281612 0.01020459 -0.00152828 0.02012056 0.00404452 0.00731862 0.01927022 0.00635875 -0.00976710 -0.01011638 -0.01247240 -0.00353678 -0.00221394 0.00057413 -0.00438520 0.02326710 0.00781806 0.00588103 -0.00184498 -0.00077688 0.00983124 0.00565560 0.02485385 0.00448155 0.00010311 0.01054160 0.00347867 0.01753563 0.00842936 0.00232188 -0.00199905 -0.00860917 0.00860963 0.00070909 0.01766551 -0.00135225 0.02786438 0.00030601 0.00301981 -0.00896891 -0.01138158 -0.00681750 -0.00619920 -0.00186079 0.00256997 -0.00927022 -0.00488280 0.00819751 -0.00502685 -0.00268446 -0.00354974 -0.01212273 -0.01587231 0.01014424 -0.00834845 -0.01071957 0.01923706 -0.00400926 -0.00366017 0.00325454 -0.01973008 0.01190270 -0.00040764 0.00776786 0.00171440 0.00430720 0.00473370 0.00288935 -0.01349274 -0.00960016 -0.00566762 0.01299278 0.01640552 0.01827662 0.01163658 -0.01063296 -0.00504701 0.00080407 0.00766101 0.02129739 0.00150827 0.00848703 0.00247193 -0.00464507 0.00870160 0.01640033 0.00460519 0.02293749 -0.00266671 -0.01078817 0.00253573 0.01722646 -0.00107017 0.00172380 0.01940335 0.00635434 -0.00048017 -0.00272840 0.00349571 0.01065678 -0.00840900 0.00027261 -0.00095623 0.00025402 0.00624155 0.01390391 -0.00021836 -0.01024104 0.00255770 -0.00262600 -0.00816162 0.00308744 -0.00551488 0.00892050 0.00447602 0.01099173 0.00447920 -0.00390111 0.00756880 -0.01094528 0.01658416 -0.00365147 -0.00443678 0.00473636 0.00796460 0.00134567 -0.00462906 0.00696432 0.01122415 -0.00628329 -0.01085495 -0.01432036 -0.00289018
-0.00383890 -0.00587317 0.01563403 0.00377429 0.00548458 0.00214472 -0.00633219 0.00462903 -0.02057132 -0.00028682 -0.01136410 -0.00681591 -0.01539331 0.00604130 -0.00406748 0.00078349 -0.00684787 0.00287095 -0.00459128 -0.02439022 0.01355230 0.01076913 -0.00882989 0.02678505 -0.01725509 0.00962540 0.01589797 -0.00238972 -0.00997040 -0.01562703 0.00171043 0.00484391 -0.00899241 -0.00099652 -0.00006138 0.01177919 -0.01563886 -0.00264230 -0.00539159 0.00085352 0.00900641 -0.00339427 0.00262351 -0.00563956 0.00915674 -0.00265667 -0.00837240 -0.00216073 -0.00135742 0.04070024 0.00233008 0.00116205 -0.00556860 0.00494217 0.00877506 0.00286442 -0.00256090 0.00491167 -0.00844186 -0.00647207 0.01470891 0.01189451 0.00594539 0.01212105 -0.00804951 0.01422102 0.00755829 -0.00175849 0.01193069 0.01324474 0.00713636 0.00223072 -0.03121156 0.00159118 0.00684474 0.00460327 0.00435110 0.00945416 0.00853763 -0.01197862 -0.00826394 0.00199533 -0.00621952 0.00519677 0.00672572 -0.00112964 0.00642525 -0.00571702 -0.00111204 -0.01826267 -0.02739795 0.00551967 0.00368852 -0.00688314 0.01662543 -0.00004056 0.01601850 -0.01688873 0.00818441 0.00967835 -0.01170107 -0.00593876 0.00797978 0.01010165 -0.00526110 0.00087147 -0.00268975 0.03214213 0.02168684 -0.01259390 0.00052704 -0.00827443 0.01328336 0.00545797 0.01528596 -0.00433648 -0.00914701 -0.00721019 0.01143768 0.00091025 0.00372131 0.00500481 0.00908636 0.00985405 -0.01754483 -0.02004846 -0.00977937 -0.00080711 -0.00901155 -0.00689762 0.01429359 -0.01585302 -0.00331217 0.00647192 0.00917730 0.00383568 -0.02256164 0.01183115 0.00289117 0.01993066 -0.01493613 -0.01376153 -0.01606705 0.00214310 0.00305375 -0.00272765 -0.00414606 0.01514403 -0.00012982 0.00949621 0.01588511 0.00339004 0.00951108 -0.00607265 -0.02974626 -0.03128792 0.00068668 -0.01180896 -0.00129319 0.00166517 -0.00960868 -0.00655164 -0.00237439 0.01378842 -0.00065692 -0.00065051 0.00017274 -0.00391830 -0.00484880 0.00607747 -0.00178067 0.00667437 -0.00539385 -0.00829821 0.00703845 0.01025240 -0.00134197 0.00616295 0.00626143 0.00359414 -0.00523947 0.01343433 -0.01306493 -0.01245531 0.00598068 -0.00520323 -0.01718578 -0.01922623 0.00041853 -0.00451346 -0.00776869 0.00469594 -0.00036801 -0.00063697 -0.00089253 0.01914767 0.00874724 -0.00984089 -0.00531025 0.00428769 -0.01049079 0.00141514 0.00360154 0.00240974 -0.00305422 -0.01712898 -0.00851302 -0.02196700 0.00461282 -0.01537063 -0.00150811 0.01401107 -0.01175486 -0.00216541 -0.00233021 -0.01039379 -0.00906361 0.00197564 0.00081657 0.00267041 0.01112601 0.00647690 0.00532935 0.00429737 -0.01702052 -0.00403980 -0.00955982 -0.00183056 -0.00693780 0.00441584 0.00961954 0.00122542 -0.00235196 0.01015928 -0.00220880 -0.00655864 -0.01690064 -0.00657995 -0.00318841 0.01525233 0.01154510 -0.00975061 0.00753168 0.00698264 -0.00035062 0.00912791 -0.01348734 0.00897399 -0.00128077 0.01401158 0.01081200 0.00441451 -0.00342835 -0.01843981 -0.01733968 0.01020585 0.01866795 -0.02362810 -0.00037196 0.01488073 -0.00901833 -0.01890357 -0.00390111 0.00350339 0.00219543 -0.00030081 0.00464002 0.01169684 0.02480203 0.01663068 0.02366418 0.01900009 -0.00084495 0.00254948 -0.00045282 0.00521683 -0.00010086 -0.00550977 -0.00005782 -0.00827114 0.00205204 0.01413971 -0.00705155 0.00897722 -0.00490314 -0.00514166 0.00259991 0.00005542 -0.01706142 -0.00564911 -0.00087735 -0.01208842 0.00624972 -0.01772524 0.00327127 0.02524720 0.02163898 -0.01108116 -0.00509712 0.00142267 -0.01408386 0.00857026 0.01127039 0.00921479 0.00411331 -0.00636463 -0.01252515 -0.02027543 -0.00142411 -0.00410955 -0.00224810 -0.00650051 0.00293816 0.00240759 -0.00480428 0.01091143 0.01443608 0.00661516 -0.01665358 0.00854677 -0.02917791 0.00990800 -0.01649241 -0.02450068 -0.01498255 -0.00301737 -0.00495765 -0.01176204 -0.00193720 -0.00408469 -0.01001300 0.00808788 -0.00938601 0.02297954 0.01030998 -0.01211473 -0.01441637 0.00078364 0.01161506 -0.00736030 -0.02195265 -0.00295394 -0.00546765 -0.00704013 0.01064614 0.00114915 0.01756113 0.00557497 -0.00126471 -0.00291912 0.01838050 0.00151953 0.00042449 -0.00452869 -0.03019575 -0.00984381 -0.00494563 -0.02500540 0.00017694 0.00572073 0.00672551 0.01087123 0.01058704 -0.00090134 0.00040043 0.00431140 -0.02193976 0.00224328 0.01111612 -0.01259657 0.01911363 0.01950052 0.00918128 0.00092721 0.00728120 0.00752025 -0.00585211 -0.00777420 -0.01054335 -0.00480230 0.00096479 0.00165044 -0.00902678 -0.03059361 -0.00905835 0.00599297 -0.01159718 0.00588612 -0.00349039 0.01044063 0.00956808 -0.00848873 -0.00063723 -0.00039745 -0.01362369 0.01394522 -0.00328272 -0.00363205 -0.01020419 -0.01500542 0.00034690 -0.00512985 0.00834309 -0.01289998 -0.00213370 -0.00698712 0.00385076 0.00101060 -0.00624065 -0.01242335 -0.00243137 -0.00079100 -0.00788642 -0.01501875 0.01297617 -0.00131937 0.00742603 -0.01043359 -0.00796840 -0.00588169 -0.01873274 0.00069744 0.01245277 0.00709731 -0.00814137 -0.01459924 0.00256799 0.01987459 -0.00642501 0.01648274 0.00325673 0.02344050 0.00960149 -0.00100509 0.01393845 -0.01366482 -0.00896736 -0.01105739 -0.00344566 0.00152226 0.00236560 -0.00743729 -0.00498137 -0.00998996 0.01474749 -0.01678107 -0.01114150 -0.01047642 0.00191860 -0.01385338 0.00159300 0.00247780 0.00086262 0.01370248 0.01840786 -0.00183717 0.00001344 0.00701340 0.00610199 0.00877559 0.01085696 0.00859180 -0.00992679 -0.01816986 0.00747975 0.00170614 -0.00697541 0.01573231 -0.00858882 0.00398647 -0.00078652 -0.00392477 -0.01233170 0.00258345 -0.02718735 -0.02174422 0.00547202 0.01283592 -0.00363451 0.00295824 0.02586517 0.02065344 0.01758880 -0.00527122 -0.00726283 0.00313886 0.00290568 -0.00414891 0.01471454 0.00731370 -0.00144327 0.00918240 0.00287303 -0.00322563 0.00145596 -0.01511019 -0.01298546 -0.00707870 -0.01080067 -0.00139403 0.00762593 -0.02087448 0.00185972 -0.01104218 0.00397509 -0.00873057 -0.00582147 -0.01364371 -0.00553427 -0.00978625 -0.01665055 0.01495235 0.00528435 0.00103938 0.00878608 0.00451176 0.00172676 0.00294601 0.01643297 0.00039211 0.01163867 0.00491273 0.00261031 -0.01535612 0.00502886 -0.00426173 -0.01260334 0.00195166 -0.00447563 -0.02295840 -0.01604901 0.00131226 -0.00418907 -0.00385439 0.00520063 -0.01719853 0.00085069 0.00462409 0.00827525 -0.02241592 -0.00810614 -0.00031662 0.00660118 -0.00938953 0.00033833 0.00027776 0.01208108 0.00685507 -0.00505312 -0.00187118 0.01032558 -0.01630994 0.01623596 -0.01032629 -0.00552276 0.00008687 0.00229175 -0.00469110 -0.01597452 0.00227657 0.01085831 -0.00485320 -0.00154524 -0.00300630 0.01227654 -0.00399969 0.00266633 0.01640540 0.00951675 0.00341579 0.02073191 0.00783381 0.01117171 0.00896850 0.01267445 0.01319185 0.02100050 0.00210497 0.01354395 0.00697876 0.01034505 0.00329041 0.00992476 -0.00342934 0.00217144 0.01003398 -0.00991441 -0.00087487 0.00551393 0.00237563 -0.01381615 -0.00804105 -0.01229750 0.00778114 -0.00436069 0.01423721 -0.00840632 0.01184851 -0.00164372 0.01844357 -0.00376330 0.00992857 -0.00555218 -0.00743540 -0.01104415 -0.00522262 0.01554062 0.01515205 -0.00424347 -0.00022960 -0.00688216 -0.00143773 0.00849811 0.00115511 0.00950945 0.00695870 -0.00140607 0.01004206 0.00157101 -0.00255387 0.00603412 -0.01938991 -0.00057398 -0.02025235 -0.00552833 -0.01988758 -0.00350728 -0.00012124 -0.01091704 -0.01199897 0.00634016 0.00984393 -0.00793010 -0.00688922 -0.00953702 0.00092116 -0.00751118 -0.01110901 0.00130454 -0.00574908 -0.00565298 -0.00363652 -0.01186213 0.00020973 0.01012045 -0.00530103 -0.00882457 0.00718512 -0.00601122 0.01078915 -0.01206608 0.00193956 0.00565658 0.00263993 -0.00486989 -0.01118028 -0.00249887 0.00353198 -0.01856194 -0.00078037 0.01171414 -0.00446318 -0.00347999 -0.01906843 -0.00617384 0.01227554 0.00321789 -0.00275844 0.01643989 0.00762758 0.00422172 -0.01104573 0.01222800 -0.00146390 0.00548971 0.00178837 0.00516806 0.00369548 0.00902708 -0.01501745 -0.00422825 -0.01834646 -0.00185603 0.00355778 -0.01027714 -0.02495668 -0.01663140 -0.00601584 -0.00314094 0.00884534 -0.00073386 -0.00221857 0.00447738 0.00276841 -0.00033794 -0.01504368 0.01373338 -0.00277503 0.00754364 0.00758064 -0.00480222 0.00356495 0.01412462 -0.00808681 0.00308937 -0.00319209 -0.00539197 -0.00334450 -0.00455830 -0.00561598 0.00661377 -0.01643736 0.01105971 0.00253678 0.00942866 -0.00107741 0.01605185 -0.00772693 -0.00805187 0.00913239 0.00932107 -0.00522700 0.01836456 -0.01360649 0.00693471 -0.00575441 -0.01105083 0.00525866 0.00487919 -0.00713122 0.01237414 -0.00589106 0.01306238 -0.01150956 0.00977322 -0.00129412 0.00281216 0.00589575 0.00147603 -0.00473017 0.00398923 0.00955130 -0.00012179 0.00127191 -0.00758451 0.01715923 0.00965863 0.00680975 -0.01446152 -0.01589027 0.00175434 0.00728421 -0.01428497 -0.00798328 0.00953850 -0.01066419 0.00497780 -0.00839632 0.00140023 -0.00532431 -0.01235028 0.01136768 0.00088313 -0.00146691 0.00919607 0.02741101 -0.00904424 0.01166569 0.00399706 0.01361819 0.00217807 0.00237309 -0.00538798 -0.01345726 0.01028077 0.01232885 0.00389109 -0.00671367 0.02521851 -0.00634952 -0.00001826 0.01114059 -0.00510938 0.01230037
0.01101425 0.01027749 0.01385658 0.01324790 0.00542026 -0.01121405 0.02307711 0.00642673 -0.00007765 -0.00852066 0.00084403 0.00385087 0.00960542 0.00112221 -0.00921838 -0.01401508 0.01352273 0.01500377 -0.01338886 -0.01143577 0.00717076 -0.00277483 -0.00565398 -0.00294598 -0.00401481 0.00196890 0.00499386 0.01844870 0.01453598 0.00011216 0.00669851 0.00650372 -0.00434850 -0.00584001 0.00687404 0.01286245 -0.00605660 -0.00117562 -0.01734605 0.00033663 0.00712327 -0.00803723 0.00924812 -0.00221929 0.00806214 0.00572874 -0.00293509 -0.00579625 -0.00070861 -0.02286457 0.00540379 0.00444657 0.00221828 -0.00873638 -0.00380748 -0.01252849 0.00958577 0.00184123 -0.00628286 -0.00976313 -0.00145620 -0.00976059 0.00445388 -0.00331769 0.00590743 -0.00672462 0.00742675 0.00677100 0.00219633 -0.00306960 -0.01268357 0.00585170 0.00421747 -0.00190489 0.00855319 0.00828683 -0.00252324 -0.00238950 -0.01274992 0.00941547 -0.01462780 -0.01056405 -0.00731369 -0.00050649 -0.00550636 0.00575241 -0.00715913 0.03008464 -0.00216692 -0.00857068 -0.00138228 0.01389477 0.01188703 0.00662305 0.00163504 0.00128865 -0.01209977 0.00497000 0.00632399 0.00468935 -0.01926295 -0.00514317 -0.00603586 -0.00254677 -0.01915753 0.00779059 -0.00719148 -0.00524035 -0.00129566 0.00538601 -0.00022830 0.01936543 0.01047618 -0.00800711 0.00409550 0.00570743 -0.00204620 -0.00767276 -0.00352579 0.00069892 -0.00926403 0.00798383 0.00001545 0.01855842 0.02468218 0.00141782 0.02620728 0.02464858 -0.00030016 0.00195434 0.02645311 0.00430943 -0.00402049 0.00022473 -0.00164098 0.00233101 -0.00099987 0.01324061 -0.00485638 0.00345294 0.02439050 0.00850201 -0.00638500 -0.00810782 -0.01956767 0.01019118 0.01178636 -0.01129322 -0.00684379 0.01591124 0.01913134 0.00891520 0.01585333 0.01809316 0.00449133 0.00583546 -0.00041524 0.01406432 0.00871421 -0.00157430 0.00716071 -0.00164510 0.00526268 -0.01354326 -0.00162586 -0.01194509 0.00828689 0.00500485 0.00795840 0.02398397 -0.00189663 0.00043027 0.00571251 0.00121901 0.00764038 -0.00284839 0.00745827 0.01780953 0.00535246 0.01789460 0.01311788 -0.00690983 -0.01094003 0.00213313 -0.00152234 0.02284950 0.00767244 -0.01193705 -0.00331794 0.00844398 -0.01787771 0.00650717 -0.00900903 0.00994900 -0.00168344 0.00377999 0.02495791 -0.00116121 -0.00539895 0.00357056 0.00065644 0.01939296 0.00184316 0.00741838 0.01432544 0.01089029 0.00476510 0.00414296 -0.00342006 -0.02963548 -0.00709845 -0.00843296 0.00683235 0.00023677 0.00000028 0.01146586 0.01108851 -0.00806827 -0.00754946 0.00830707 0.00859632 -0.01823086 0.00228282 -0.00412662 0.00228867 -0.00363727 -0.00295550 0.00272012 -0.00396497 0.01170076 0.01630428 0.00831842 0.01852976 0.01831339 0.02509133 0.00708962 0.00494905 -0.03069956 -0.00886488 0.00115724 0.01436507 -0.00396248 0.00035760 0.00651939 0.01056426 0.01920614 -0.00436353 -0.00366278 0.00786392 -0.00035995 -0.00413225 0.01056152 -0.00134867 -0.00207684 0.00740060 -0.00662127 -0.00193758 0.00581252 0.01055866 0.00748573 0.02212160 0.02503742 0.00636254 -0.00395118 -0.01042163 -0.02717668 -0.00506836 -0.00231860 -0.00972617 0.00148481 -0.01159866 -0.01671060 0.00263428 0.02841223 0.00190474 0.00226388 -0.00802904 -0.00715845 -0.01660853 0.00334243 -0.00235239 0.00614371 0.00405767 0.00396976 -0.00623474 -0.00396957 0.00523949 0.00219845 0.01630170 0.00705030 0.02323093 -0.01902809 -0.00908374 -0.02955988 -0.00923821 -0.00469703 0.00943997 0.00439307 0.00606908 -0.00521371 0.00287032 0.00052417 0.00194660 0.00606826 0.00103670 0.00163724 -0.01330983 0.01252220 0.02464336 -0.01789099 0.00059867 -0.01342070 -0.00359720 0.00400275 0.00647289 0.00386821 0.01777837 0.00708353 -0.00301870 -0.00808902 -0.03531712 -0.03503368 -0.01460083 -0.00028628 0.01778575 0.00202147 -0.01138002 0.00089019 -0.00741053 -0.00506620 -0.00559172 0.01596791 0.00287795 0.00020444 -0.00070523 -0.01486730 0.00051065 -0.00356900 0.01932932 0.00291233 0.01862471 0.01554594 0.01706354 0.01663931 0.03167866 0.01839652 -0.00501808 -0.00858665 -0.01403858 -0.03264820 -0.01883689 0.00194790 0.00567740 0.00079466 0.00455270 0.01608362 -0.01282617 -0.01494190 0.00792689 -0.01135801 0.00382227 -0.00109035 -0.00372269 -0.00164969 -0.00896649 -0.01000265 -0.00738684 0.01572852 0.00855623 -0.00328367 0.00671590 0.01923377 0.02984891 0.00995832 0.01428404 -0.02426068 -0.02519113 -0.02633442 -0.01917383 0.01012969 -0.00350747 0.01799840 0.00164719 -0.01411042 -0.01790997 -0.00685769 0.01835201 0.00025002 -0.00148531 -0.01047591 -0.01186598 -0.00480144 -0.00850144 -0.01598596 0.01069815 0.00065106 -0.00258409 0.00720559 -0.01461268 0.02606629 0.01333125 -0.00866987 0.00358496 -0.02450195 -0.02933158 -0.03583264 -0.01412443 -0.00634346 -0.00480083 0.01807571 0.00011127 -0.00327758 0.01532794 0.00624437 0.00093589 0.00854887 0.01638821 0.00858475 -0.00283268 -0.01337565 0.00964040 -0.02405077 0.00415950 -0.00233833 -0.01199819 -0.00821969 0.00842597 0.01824096 0.01868813 0.01686465 0.00909718 0.01193614 -0.00960977 -0.02030555 -0.01329484 -0.01006075 0.00735934 0.00395154 -0.00850766 -0.00257808 0.01335633 -0.02011929 0.01535863 0.01141352 0.00910508 -0.00303224 -0.01405774 0.00790149 0.00987944 0.00328452 -0.01017127 -0.00497003 0.01965460 0.01125638 0.01346592 0.01647286 -0.00386442 0.02209826 -0.00877280 0.00626086 -0.00713256 -0.02394162 -0.01956142 0.00368109 0.01621502 0.01129768 0.00463284 -0.00811312 0.02509591 -0.00398279 0.02836897 -0.00524116 -0.00198564 -0.01535892 -0.01123211 -0.00448183 0.00473701 0.00819134 -0.00492390 -0.01222126 -0.00362309 0.00866523 0.01258271 0.00618573 0.00852689 -0.00163914 -0.00001470 0.00171720 -0.01346559 -0.03824698 0.00768700 0.01219190 0.00783200 0.00068081 0.00221537 -0.01350665 0.01488944 0.00800026 0.01750450 0.00239737 0.00616805 -0.00069519 0.00310474 0.00089622 0.00500957 0.00361195 0.00052782 0.00065503 0.01164113 0.01314710 0.03084223 0.01027487 -0.00100588 0.00310299 0.00752929 -0.00707322 -0.02709350 -0.02718766 0.00159520 -0.00155559 0.00403677 0.01205645 -0.00936082 0.00486365 0.01350248 0.01969190 0.00876018 0.01311430 0.02075824 -0.00657396 0.00954655 0.00752312 -0.00083702 0.00327374 -0.00586321 -0.00469595 0.01639085 0.00280663 0.00179038 0.00951583 0.00024771 0.00695024 -0.00151267 -0.02940264 -0.03244536 0.00203631 -0.00020788 0.01186517 0.01687497 0.01376859 0.01070035 0.00545814 0.01756279 0.01846904 -0.00258575 -0.01469431 0.00637473 -0.00461002 -0.01271299 -0.00036032 -0.00781886 0.00410975 0.00430673 0.01219697 0.00631103 0.01151095 0.02314814 0.00017268 0.00529270 -0.00031509 -0.00788655 -0.00899606 0.00521187 -0.00419585 0.01695640 0.02184263 0.01725583 0.01745863 0.02389420 0.01866391 -0.00865847 0.01587110 0.01270923 -0.01139250 0.01692972 0.00479870 -0.00929811 0.00348674 0.01392563 -0.00262129 -0.01131877 -0.01428918 0.00795986 0.02063821 -0.00188930 0.00692326 0.01287766 -0.00333058 -0.00685237 -0.01367106 -0.02545612 -0.00737480 0.01982008 0.02388114 0.00929594 0.01633138 0.00516949 0.04016748 0.01145952 0.01294071 0.00396458 0.01380796 0.00010468 0.00269378 -0.01412650 -0.00675953 -0.00614750 -0.00557799 -0.00359700 -0.00732907 0.00279214 -0.01229717 0.02161756 0.00549404 -0.00101941 -0.01530416 -0.00737221 -0.00767319 -0.00679088 0.00490420 -0.01053237 0.02439998 0.00618685 0.00930598 0.01050963 0.00394683 0.00237705 0.01315960 0.00767356 0.01399379 0.00355272 -0.00585664 0.00467726 0.01286152 0.01541615 0.00541918 0.01214434 0.00560732 0.00661038 -0.00515673 -0.00715261 -0.00333440 -0.00092011 -0.02601116 -0.01084860 0.00132971 -0.00687365 -0.00059282 -0.00406332 0.00113383 0.00271903 -0.00319422 -0.00771276 0.01886821 -0.00177619 0.00084089 0.00439406 0.01352990 0.00411278 -0.00611163 -0.00797738 -0.00987262 0.01276435 -0.01081325 0.02555633 0.00501643 -0.00391758 0.00700921 -0.00483441 0.00021174 -0.02090186 -0.01391766 -0.00663844 -0.02537490 0.00593284 -0.00799715 0.00387414 0.02440607 -0.01020236 0.01252406 0.01673892 -0.01260062 -0.00330381 -0.00493279 -0.00630072 -0.01162850 -0.01232332 0.01161846 0.00208352 -0.02335776 -0.00714799 -0.00049791 0.00252913 -0.00285631 0.00526664 -0.01160878 -0.00220037 -0.00489019 0.00295711 -0.00445099 -0.01587160 -0.00674139 -0.00762303 -0.01298233 -0.01384416 0.00250665 -0.00077414 0.01461546 -0.00096743 -0.01327222 0.00354399 0.00252138 -0.02261398 -0.00438358 0.01167552 -0.00787968 -0.00100503 -0.01170651 -0.02406265 -0.00184368 0.00650869 0.00515598 0.00554999 0.00972488 0.00895585 -0.00890214 0.00888589 0.01499349 -0.00478630 0.00950532 0.02223975 0.00218421 0.00140849 0.00180286 -0.00752664 -0.00232474 0.00414449 -0.01956587 0.00877514 0.02576337 0.02426199 -0.00872136 0.00375111 -0.01041774 -0.02158150 -0.00837171 -0.00748762 -0.01856836 0.00979326 -0.00466151 0.00124050 0.00208955 -0.00897976 -0.00276840 0.00557910 -0.01476545 -0.00584084 0.00565010 0.00160281 -0.00236698 0.00562182 -0.01060391 -0.00989135 0.00285957 -0.02307214 -0.00419983 0.00297068 -0.00389449 -0.01328024 0.00895772 0.01108837 -0.01947169 0.00827624 0.00230371
0.00451781 0.00489366 -0.01022011 -0.01018120 -0.01646819 -0.00968424 -0.00990492 0.00222823 0.00656083 0.01095549 -0.00434239 -0.00260962 0.00329485 0.00548813 -0.00303918 0.00101552 0.00634112 0.00543963 0.00392284 0.00241685 -0.01786129 0.00798073 0.00418439 -0.01146633 -0.01144484 -0.01031209 0.00646910 0.00187170 -0.00084882 -0.00128042 -0.00347396 -0.00307864 -0.00200162 0.02161153 0.00011394 0.00736486 0.00399328 0.00592912 0.00262365 -0.00980925 -0.01338736 0.00460449 0.02195023 -0.00525632 0.01382332 -0.01515240 -0.01238252 0.00952904 0.00371334 0.01710383 -0.00850385 -0.00779046 0.00347718 0.01248973 0.02239021 0.00815445 -0.01519618 -0.00825482 -0.02952462 0.00141327 -0.00355703 -0.00554850 0.00890745 0.00887725 -0.01120950 -0.00182969 -0.00281173 0.00318324 0.00051726 0.00918142 0.00785667 0.01521270 0.00058602 0.00080134 -0.01970422 0.00590846 -0.00693134 0.00782605 0.00261052 0.00845556 -0.00126892 -0.00904204 -0.01553092 -0.00640264 -0.00268035 -0.00455135 -0.01255822 0.00434320 -0.00254634 -0.01235575 0.01298882 0.00406782 0.00493120 0.00027126 -0.00561922 -0.01724332 -0.00185594 0.00610189 -0.00281323 -0.00490370 0.00170710 -0.00138403 -0.00446223 -0.00522526 -0.01096213 -0.01374799 -0.00732848 0.00187900 -0.01058137 0.00904378 0.00332365 -0.02411250 0.00733136 -0.00243113 0.00250725 0.00787690 -0.01474304 0.00201215 -0.01466713 -0.00961014 0.00907582 -0.00046483 0.00326315 -0.00853145 0.00209972 0.00058081 0.00761529 -0.00081188 -0.01353227 0.00873909 0.01268297 0.02108502 -0.00248247 -0.00526128 0.00328074 -0.00115681 -0.01456353 0.00060323 -0.00197131 -0.00112746 -0.00132220 -0.00066686 -0.00231204 -0.00581595 -0.00579283 0.00893411 -0.00192840 0.00009617 -0.00233264 0.01757779 -0.00878854 0.00764877 -0.00236322 -0.00835191 -0.00263722 0.00118162 -0.01028181 0.01422093 -0.00686679 0.00206731 -0.00157824 0.00688804 -0.00845230 0.00847676 0.00813222 -0.01128548 0.01497009 0.01054661 -0.00006456 -0.01604980 0.01709112 0.01445480 -0.01502134 0.01650867 0.00237421 0.01707899 0.00056799 0.01218263 0.00022489 -0.00647389 -0.01415690 -0.02180788 0.00897133 0.00476492 0.00703217 -0.00603002 -0.02976156 0.00576527 -0.00008246 0.00065630 0.00965407 -0.00446560 -0.00243836 0.00462524 -0.00224059 -0.00147633 -0.00432857 -0.00006445 0.00017831 0.01620487 -0.00122207 -0.00443520 -0.01068914 -0.00367327 0.01066904 0.00430170 0.00034583 -0.01188098 -0.00560712 0.00531690 -0.00323075 0.00148863 -0.01406970 0.01129811 -0.00246340 0.00722922 0.00767745 0.00429694 -0.01474189 0.00824305 -0.01104237 0.00061264 0.00461592 0.00124077 0.01186388 -0.00046237 0.01153738 -0.00375221 0.00359710 -0.00631707 -0.01025383 0.00122236 0.01460212 -0.01354624 0.00240798 -0.00302054 0.01430834 0.00678600 -0.01343346 -0.00594184 -0.00771818 -0.00347386 0.00156634 0.00156699 -0.00195471 -0.00304342 0.02349266 -0.00578213 -0.01041723 -0.01179954 0.00466167 0.00677441 0.00967917 0.00279577 -0.01916746 0.00674472 0.01038246 0.00309320 0.00396269 -0.01431775 0.01392474 0.00557534 0.00406717 0.00953498 -0.00611590 -0.01402408 -0.00850675 0.00289469 -0.00254937 -0.00213811 0.00763611 -0.00421248 0.00320809 0.00719112 -0.00063456 0.00151554 -0.00676212 -0.00090992 0.00247099 0.00933040 -0.00748152 -0.00807505 0.00058218 0.02121629 -0.00633555 0.00496276 -0.00133721 0.01257656 0.00485739 0.01683517 -0.00829396 0.00357201 -0.01061249 0.00136214 0.00707859 0.00713130 0.00443923 0.00784919 -0.00242959 0.01343477 0.03046822 -0.02252863 0.00873696 -0.00610269 -0.00073811 -0.00003695 0.01429352 -0.01594383 0.01161642 -0.01426797 0.01263749 0.00659266 0.00042443 -0.00728569 0.00014833 0.00949339 -0.00968122 0.00454153 -0.00763801 0.01401181 0.00232076 -0.00007905 0.00988179 -0.01103567 0.01056917 -0.01264766 0.00916938 -0.00597456 0.00150096 0.00347511 -0.00711763 0.01257528 -0.01211908 0.01540701 -0.00899744 0.00221768 0.00140161 -0.00633872 0.00572766 0.01093270 0.00345886 -0.01087822 0.01147912 0.00349704 0.00385940 -0.00007567 -0.02112745 0.01409267 -0.00967672 -0.01124691 -0.01011877 -0.00782636 -0.00425801 0.00045357 0.00419075 0.01315467 0.00909970 0.02747467 -0.00104653 -0.00458713 0.00454294 0.00165747 -0.01923529 -0.00598712 0.00918556 0.01599595 0.00216803 0.00678933 0.00672903 -0.00621864 0.01293540 -0.00010442 -0.00129093 0.00274242 0.00315610 -0.00877495 0.01378101 -0.01860469 -0.00006674 -0.00828099 0.00889905 0.00875808 -0.01187344 0.00930598 0.01277696 0.00356977 0.00915809 0.01118196 0.02409077 -0.00786504 0.00072933 0.00035897 0.00384859 0.00051834 -0.00680711 -0.00952534 -0.00075002 0.00721347 0.00983571 -0.01649229 -0.01323669 -0.01592160 -0.00657395 0.00073660 -0.00351645 -0.00331825 0.01558830 -0.00544605 -0.01313160 -0.00523208 0.00103881 0.00112314 0.00363827 0.00245194 -0.00033526 -0.01313247 -0.00242563 -0.00349466 -0.00332796 -0.00002902 -0.01547624 -0.01605279 0.00172614 -0.00406385 0.01093798 0.00472634 -0.00689584 -0.01156597 0.00753667 0.00167947 0.00796862 0.00340995 -0.00072031 0.00239778 0.01691893 -0.01350377 -0.00273696 0.00540923 0.00191202 -0.01626724 0.01281940 -0.01827625 0.00333926 -0.00055313 0.02312020 -0.01123115 0.01054474 -0.00434608 0.00375014 0.01081504 0.01155765 0.00735207 0.00741342 0.00162716 0.00299250 -0.01177175 -0.00455121 -0.01122164 0.00142550 0.00633350 -0.00984460 0.00049542 -0.01773644 -0.00737971 0.02485565 0.00046818 0.00312517 -0.00143277 -0.02109746 0.00362372 0.00070265 0.00274739 -0.01360265 0.01519429 0.01883581 -0.00717371 0.01078546 -0.01041208 0.00990922 -0.00506097 -0.00502290 -0.01536198 -0.00191057 0.00611623 0.00165472 0.00054589 0.01683298 0.01265675 0.00134723 -0.00972335 -0.00892560 -0.02009179 -0.01061817 -0.00464597 0.02680004 0.00302796 -0.00722590 -0.02599724 0.00762873 0.00451453 0.00304409 0.00079545 -0.00586626 -0.00933373 0.00053546 0.01414814 -0.00294692 0.01591079 0.00629880 0.00502157 0.00035324 -0.00843200 -0.00087819 -0.00544907 -0.00283676 -0.00454417 -0.00382334 0.00569249 -0.01740426 -0.00178479 -0.00898434 -0.00440992 -0.00707486 -0.01470943 -0.00638786 0.01280672 0.00853371 -0.00324791 0.00661047 0.00767302 0.00629451 -0.01256650 0.01053981 -0.00138450 -0.00686272 0.00273478 0.01068525 -0.00059128 -0.00699646 0.00133059 -0.00986019 -0.00904625 0.01156881 0.00608195 -0.00990208 0.01308960 0.00643875 -0.01158815 0.00176021 -0.01185405 0.00399999 -0.00620137 0.00441575 -0.01384314 0.01639234 -0.00393737 -0.00601157 -0.01315011 0.01241216 0.00085022 0.00704801 -0.00577340 0.00225978 -0.00383132 -0.00721915 -0.02980270 0.01234319 0.01257815 0.00055446 -0.00439328 0.00345184 -0.02209396 -0.00713074 0.01026973 -0.01013533 -0.00640648 -0.00200676 -0.01375922 0.01054187 -0.00823933 0.00296172 0.00591834 -0.00347497 -0.01510982 -0.00783438 -0.00010701 -0.00491835 -0.00892396 -0.01865283 -0.01374036 -0.01375921 0.00321109 -0.00440322 0.00275155 0.02004165 -0.00782621 -0.00485626 -0.01287462 -0.01174596 -0.01771994 -0.00040613 0.00766986 0.00700511 -0.00188253 0.00155943 0.00218557 0.01206768 0.00493603 0.01237575 -0.01088267 0.01173726 -0.00802800 0.01068345 0.00805477 0.00022529 -0.01399112 0.00342339 -0.00722119 0.00490500 -0.03217497 -0.00130521 0.00682374 -0.00965635 0.00628873 0.00718158 -0.01053041 0.00995515 -0.01092721 0.01294358 -0.01993940 0.00238558 -0.00775563 -0.00443954 0.00984022 -0.01576689 0.00853937 0.01449023 0.00688519 0.01686945 -0.00343645 0.01281872 -0.00812319 0.01918684 0.01019968 0.01955420 -0.01416341 0.01348676 0.00432065 -0.01351097 0.02337069 0.00999189 0.02160103 0.00711196 -0.01285971 0.00489531 -0.02314797 0.00376698 -0.01363748 0.00955085 0.01992538 -0.00356609 0.01128913 0.00841268 -0.00472886 -0.00371675 -0.00434582 -0.01073621 0.00711811 0.00048990 -0.02338697 0.01090273 -0.00749935 -0.00176110 -0.02009670 0.00800801 0.01745134 -0.00493640 0.00785046 0.01057850 0.00282432 -0.00867374 0.01987477 -0.00402368 0.00115469 0.00501190 -0.00829655 -0.00108012 0.01309538 -0.00345075 -0.00801846 -0.00247264 -0.00078172 -0.01079366 -0.00711081 -0.01304139 -0.01335372 0.00084929 0.00486951 0.01020980 -0.00757025 0.01020300 -0.00503397 0.01032367 -0.00277194 0.00522252 0.01866967 0.01002078 0.00178582 0.01891317 -0.02022969 -0.00659242 -0.00335075 -0.02395609 -0.00091850 0.01636922 -0.02250452 0.00513185 0.02621742 0.00212877 0.00243314 -0.00484527 -0.00444984 -0.00736876 0.00307607 -0.00123678 0.00889216 -0.00822021 -0.00500723 -0.00957049 0.00406178 0.00209878 -0.00220229 -0.02033968 -0.00155141 -0.00803460 -0.00393751 0.00153034 -0.00693329 0.00564831 -0.01982924 0.01554226 -0.00510065 0.00014845 0.01157034 -0.00667553 0.00375371 -0.01657138 0.00611740 -0.00221688 -0.00602590 0.00751538 0.00578965 0.00027819 -0.00178911 -0.02295786 -0.00507685 -0.00178694 -0.01184224 0.00616000 0.01604677 -0.00698194 0.01007533 0.00731185 -0.01047545 -0.00225166 -0.01672994 0.00894381 -0.00085729 0.00340399 0.00452387 -0.00361717 -0.00367264 -0.01971460 -0.01649472 0.00729385 -0.00917186 -0.00517736 -0.00919254 0.01772550 0.01589571 -0.00225253 -0.00464190 0.01204970 0.01097855
-0.00716287 0.00775380 0.00524069 0.00632886 -0.01660421 0.01089721 -0.00672486 -0.00206207 0.01361211 0.01692175 -0.00692914 -0.00931247 -0.00472347 0.00167749 -0.00810915 -0.02258201 0.00730401 0.00434324 -0.00268207 0.01049075 0.00136926 -0.00897028 0.00623939 -0.01361253 -0.00354459 -0.00912612 0.00695084 0.00284504 -0.00123713 0.00451964 -0.01716742 -0.01652980 0.01690820 -0.00213484 0.01851982 -0.01330673 0.01994976 -0.01420963 0.00578484 -0.01829084 -0.00288542 0.02103042 -0.00263994 0.01494765 -0.00689957 -0.01862816 -0.01858168 0.00962703 0.00616084 0.00438639 0.00057537 0.00530646 0.00478990 0.00525984 0.01060911 0.00408852 -0.01250313 -0.00698166 -0.01151026 0.00504715 0.00415285 0.01025112 -0.00321003 -0.00778115 -0.00904416 0.00691885 0.00225843 -0.01342522 -0.00392800 -0.00184440 -0.00095406 0.00365993 -0.00862488 -0.00864827 -0.01053183 -0.00685836 0.00955326 -0.00973216 -0.00730068 0.00279437 -0.00848694 -0.00514030 0.00926762 0.00136434 -0.00792575 -0.01976762 -0.00360344 -0.01299072 0.00684868 -0.01442182 -0.00887081 0.00310928 0.01199143 -0.02057492 0.00314584 -0.00540763 -0.00547596 -0.02665486 -0.00208471 -0.01661692 -0.01933608 -0.00334826 -0.01124619 -0.00889995 -0.00141217 -0.02396048 0.00238689 -0.00714973 0.01075134 -0.00669168 0.00041690 -0.00266166 0.00488269 -0.00391091 0.00422136 -0.00325858 0.01032202 0.00938250 0.01019182 -0.00291085 -0.00089559 -0.00856680 -0.02014005 -0.00192923 -0.01076431 0.00177671 -0.00381747 0.00394056 0.01049646 0.00329499 -0.01359988 -0.00780268 -0.00304766 -0.01248871 0.00426720 0.00324023 -0.00627213 0.01408739 -0.00000666 0.01065918 0.00716396 -0.00309196 0.00824978 -0.00438102 -0.00786007 0.00391931 -0.00651535 0.00832816 -0.01222548 0.00646917 0.02244179 0.00840788 0.01963893 0.01849644 0.02595435 0.03226699 0.01704929 0.01236903 0.00383946 -0.00130778 -0.00274631 -0.00018665 0.01039427 -0.00011403 -0.01629458 0.00247263 0.00875496 0.00630368 0.01233465 -0.00791690 0.01625762 -0.00789884 -0.00101174 -0.00369957 0.01273531 -0.00488093 -0.00817128 0.01711120 -0.00292728 0.00736441 0.01469838 0.01242269 0.03599162 0.02070922 0.01515275 0.01112548 0.02157347 -0.00113509 0.00533986 -0.00869739 -0.01945295 -0.00334451 0.01338646 0.01319183 0.01474973 0.00000233 -0.00422426 0.01763170 -0.00985000 -0.00950388 -0.00021528 0.00372208 0.01158054 -0.00253786 0.01457198 0.01904480 -0.00718450 0.01386146 -0.01212355 0.00523653 0.01687160 0.01702789 0.02374266 0.03793209 0.02547862 0.00656816 0.00868575 -0.01325443 -0.00251228 0.00352310 0.00852750 -0.00290437 -0.01509186 -0.00609997 0.00626309 -0.00114583 -0.00711319 -0.00084060 -0.01632987 0.00292007 0.00099874 -0.03988606 -0.01695488 -0.00499828 0.00374147 0.00214137 -0.01682631 0.00110516 0.01588368 0.01275571 0.00222385 0.01479400 0.00980682 0.01557759 0.02034616 -0.00155623 0.00111215 -0.00677361 -0.00589319 -0.00940784 0.01130385 0.01428779 0.00360052 0.00145769 0.00123488 -0.02043048 -0.00221105 0.00286788 0.00331509 0.01437216 0.00215110 -0.02042601 -0.02242701 -0.02648327 -0.00985325 0.03145868 0.01106108 -0.00556271 -0.01039549 0.00752570 0.02005389 0.01875238 -0.01151540 -0.00483360 -0.01030569 -0.01465006 -0.00368135 -0.00019359 0.00882267 0.00506668 0.00273245 -0.00981625 -0.00837361 -0.00472664 0.00229356 0.00201096 0.01024443 0.00473324 -0.02915485 -0.02208654 -0.01439294 -0.01463205 0.00254047 0.02198845 0.00538967 -0.00991033 -0.01522134 0.00775190 0.02663887 0.02554162 0.01245966 -0.00146687 0.01263189 0.00103783 -0.00875769 -0.00412993 -0.00371625 -0.00338671 0.01274168 -0.01206018 -0.00421704 -0.00494916 -0.00017319 0.01103258 0.01000500 0.00188973 0.00199272 -0.01029666 -0.00798843 -0.01876887 -0.00844359 -0.00876753 -0.00059927 -0.00389010 0.00754635 -0.00611267 0.02424771 0.02624000 0.01847711 0.01031278 0.00841595 0.02200188 -0.01157440 0.00348486 0.00271452 -0.00403821 -0.00150443 -0.00499149 -0.02022333 0.00352249 0.00261019 0.01520724 0.00528230 0.01150321 -0.01668622 -0.02067904 -0.00722007 -0.00522855 -0.02735354 -0.01043364 -0.00824682 -0.02111235 -0.03285683 0.00596335 0.01875381 0.03169106 0.03107053 0.02233987 0.01315184 0.01786610 0.00449286 0.00826745 0.01940266 0.01236148 -0.00894403 -0.01888497 -0.00352268 0.00081368 0.00591885 0.00587087 0.00158317 0.01130941 -0.00071673 -0.01020472 -0.01157400 -0.00667969 -0.01988060 0.00705334 -0.02635962 -0.02825488 -0.00884496 -0.00395329 0.00487881 0.03187517 0.00583564 0.01894431 0.02515473 0.00913582 0.00633472 -0.00075271 -0.01306001 0.00581193 0.01529703 0.01519999 -0.00248545 0.01735778 0.01799842 -0.00275109 0.03877306 0.01480723 0.00431094 -0.00716195 -0.00643473 -0.00896450 -0.00229676 -0.01573812 -0.02872482 -0.01600339 -0.02709014 -0.00500277 -0.00378640 -0.01188868 0.02747201 0.01520119 0.00872972 -0.01114080 0.01219926 -0.00802595 0.00883708 -0.01641442 0.01746677 -0.00510257 0.00139327 -0.00954661 0.01386116 0.02036956 0.00077995 0.01205142 0.01630326 -0.01629945 0.00572659 -0.01400334 -0.00718990 -0.01786258 -0.01969320 -0.03116319 -0.00022447 -0.00173172 -0.01771402 0.02093864 0.01988211 -0.01159986 0.00951345 0.02122735 0.00245486 -0.00942298 -0.00153969 -0.00345782 0.00368718 -0.01680674 0.01585963 0.00900414 0.02034268 -0.00777731 0.01817267 0.01239117 0.01739117 0.00858582 -0.00061689 -0.02100831 -0.01892018 -0.01803917 -0.02462096 -0.01590104 -0.01876467 -0.00263432 0.00666550 -0.00620755 -0.00100339 -0.00304593 0.01755019 0.01403893 0.00875687 -0.00083188 0.00819895 -0.01814051 0.00858456 0.01493294 -0.01230486 -0.00263375 0.00837455 0.00487059 -0.01424746 0.02702243 0.03269711 0.01807293 -0.00811267 -0.00070282 -0.02697880 0.00243684 -0.01835362 -0.00995954 -0.00048577 0.02324510 -0.00438032 -0.00868665 0.00906970 -0.00772559 0.00325777 -0.00614726 -0.00463856 0.00685820 -0.01789231 -0.00665655 0.00534423 -0.00674309 -0.00873629 0.01103582 0.01971882 0.01661824 -0.00016385 0.02424495 0.00488402 0.03589418 0.01605315 0.01030963 -0.03349240 -0.01567792 -0.01754459 -0.02706812 0.01386478 0.01504164 0.01096280 0.00344793 -0.01973282 0.00469120 -0.00040048 0.01057590 0.01160647 -0.00331469 -0.00337200 0.00620059 0.00873272 0.00598898 -0.01319222 0.00730816 -0.00014235 0.01891938 0.02202529 0.02718034 0.02560074 0.01162277 0.01659903 0.01730041 0.02175405 0.00544555 -0.01173636 0.00798431 -0.00447657 0.00293214 0.00471243 -0.00773909 -0.00791757 -0.00525796 -0.00345787 0.00986098 -0.01024785 -0.00023207 0.01577268 0.00440500 -0.00207077 0.01355411 0.00615914 -0.00659983 0.00034043 0.01275460 -0.00467709 0.01327478 0.01821359 -0.00432253 0.01089928 0.01621191 0.01624739 0.01450811 -0.01947683 -0.00681221 -0.01345256 0.00383653 -0.01224872 0.01014075 -0.01375912 0.00895115 0.01027653 0.00054869 -0.01647353 0.01157171 -0.00655775 0.01541879 -0.00389069 0.00483181 0.00767806 0.00106120 -0.00548375 0.00276969 -0.00652645 -0.00763595 0.00732354 0.02305407 0.01232099 0.01001514 0.00386005 0.00883565 0.01274435 -0.00019191 -0.00008340 -0.00402147 -0.00065958 -0.00051759 -0.01215579 0.00500729 0.02545429 -0.01277401 0.01412908 0.00384098 -0.00998071 0.01494440 -0.01410493 -0.00645838 0.00052781 0.01074178 -0.00584416 0.00786159 0.00057164 0.00039234 -0.00109895 0.01244962 0.01792778 0.01422044 0.03136221 0.00698414 0.01055182 0.00917841 0.00168936 0.00341698 0.01914853 0.00910915 -0.00987079 0.01536645 0.00064864 0.01330185 -0.00132397 -0.00570631 0.00582830 -0.00187531 0.00920341 -0.00337611 -0.00458996 0.00931213 0.02202436 -0.00821475 0.00609850 -0.00143032 0.00833396 0.00006620 0.00319122 -0.00711227 -0.00308775 0.00817386 -0.00444475 -0.00218321 -0.01608053 0.00065763 -0.00232396 0.00423620 0.00428286 0.00511418 -0.00562118 0.00324205 0.00596169 -0.01171243 0.00485661 0.00097227 -0.02647960 -0.00716274 0.00965025 0.00896317 -0.00397283 -0.00180775 -0.00006020 -0.00608234 0.01421307 0.01586000 0.00485089 0.01443952 0.00617958 0.00151981 -0.00925736 -0.00801302 -0.00666611 -0.00008712 -0.00794127 -0.00121039 -0.00052582 0.01637623 0.01158592 -0.00222962 -0.00429793 -0.00202546 0.00416487 0.00229582 -0.01368282 -0.00903274 0.00067208 -0.00642625 0.01068716 0.01197263 0.01218563 -0.00690538 -0.01438707 -0.00865244 0.00505446 -0.01096375 -0.00115077 -0.02300395 -0.01202628 0.00442393 -0.00058425 -0.00587046 -0.01110419 -0.02287385 -0.00624382 0.01377425 -0.00196939 0.02136915 0.00247681 0.01006092 -0.01211137 -0.00230804 -0.00363001 -0.00526043 0.00948331 0.00976144 -0.00241406 -0.00283804 0.00317885 0.00795018 -0.01376878 -0.00681163 0.00411673 -0.00216783 0.00164749 -0.01477513 -0.00161319 0.00344408 -0.01196220 0.00719552 -0.00015948 -0.00290657 -0.00232776 -0.00135924 0.01198561 0.00428730 -0.00106248 -0.01319346 -0.00126597 0.00761491 0.00772108 -0.00558197 0.01176090 0.00034697 -0.02110470 -0.00553463 0.00991526 0.00610962 0.01097151 -0.00239055 -0.00502461 0.00210284 0.00420281 -0.00911101 0.00538435 0.00950928 0.00758799 0.00173929 -0.01438460 -0.01439916 -0.00292626 0.00762368 0.00883458 -0.00551303 0.00993243 0.00620763 0.00261207 0.01271340
0.00268898 0.01546563 -0.01063732 -0.00296810 0.00614404 -0.00316370 0.00314321 -0.00329680 -0.00633250 -0.01572821 0.00527595 -0.01251975 0.02583753 0.00654677 -0.01841528 -0.00198388 -0.00532901 -0.00218367 0.00244710 -0.01769737 -0.00515524 -0.01756948 0.00621143 -0.01245873 -0.00341110 -0.00113762 -0.00898177 0.00085992 0.01107875 0.00478455 0.00129009 0.02270104 -0.01221066 -0.01183356 0.00391938 0.02821379 -0.01223618 -0.01249042 -0.01134394 0.00295841 -0.01442814 0.01117769 -0.01625416 0.02364486 0.00998778 -0.00123934 0.01377223 -0.00321969 0.00771947 0.00429453 0.00281666 -0.00689809 0.00433146 0.00404333 0.01561867 0.00564352 -0.00857532 -0.01235333 0.00369254 -0.00195507 0.01290724 -0.00878758 0.00511221 -0.01071158 0.00702639 -0.00415106 0.01657515 0.00744848 0.00177875 -0.00018538 0.01464272 -0.01304510 0.00034355 0.00028010 0.01137765 0.01153074 -0.00301077 -0.00360231 0.02027502 0.02428973 -0.01067129 -0.00661393 0.00547407 0.00739332 0.01538407 0.01292328 0.00950948 -0.00811647 0.01625944 -0.00365161 -0.00329776 0.00027102 -0.01547143 -0.00069016 -0.00029882 -0.00069879 0.00302278 0.01035307 -0.01702820 0.01509632 0.00876038 -0.01526164 -0.00137134 0.00265761 0.00453986 0.00382493 0.00579536 0.01563652 0.01058946 0.00734007 -0.01157738 0.00331092 -0.00374915 -0.00866875 -0.00691840 -0.00153696 -0.00277366 -0.01169946 -0.00701233 -0.00592660 0.00086747 -0.01953351 0.00694376 0.01303461 -0.00906739 -0.01484774 -0.01107586 0.00999697 -0.00952640 -0.00302167 -0.00129887 -0.01841715 0.00104173 0.00790421 -0.00344777 -0.00496650 0.01375782 -0.01103381 -0.01484400 0.00080302 -0.00969819 -0.01629452 0.00820614 0.00259025 -0.00170762 -0.01438270 0.00052691 -0.00367777 -0.00808120 -0.01002924 0.01507453 -0.00350212 -0.00585183 0.00004033 -0.01486264 0.01665102 -0.00579349 -0.01416615 -0.01408437 -0.00744862 -0.03502161 -0.00832849 0.01232078 -0.00603061 -0.01629242 0.01336224 0.00054141 -0.00986590 -0.00788980 0.00313435 0.00999440 -0.01266324 0.00241781 0.00905421 0.00942420 -0.01316853 -0.00563776 0.01634727 -0.00984049 -0.01532472 -0.02027453 -0.01969714 -0.00805383 -0.01152656 -0.02095881 0.01045644 -0.01398840 -0.00541002 -0.00912268 -0.00820157 0.01467336 -0.01175581 0.00880626 -0.01153120 0.00671929 0.00354493 0.00149824 0.01398419 -0.00704981 -0.00829463 -0.00531495 0.00235143 0.00592652 -0.00569223 -0.01726212 -0.00528683 0.00464570 -0.01053409 0.02018316 -0.01256221 -0.00740293 -0.00224242 -0.00428480 -0.00035564 -0.00202509 -0.00337052 -0.01376407 0.00025642 0.01442654 0.01081485 0.02045895 0.00637258 0.00951153 -0.00351433 0.00285011 0.00516127 -0.00973941 -0.00907952 0.00336423 -0.02659346 -0.01776800 -0.02190357 0.01081273 -0.01186609 -0.01117688 -0.01951741 -0.01818960 -0.00981555 -0.01824794 -0.00291410 0.01362085 0.00805337 0.00905440 0.01511383 0.02153113 -0.00502435 0.02050587 -0.01001934 0.01954999 0.00008586 0.01467183 -0.00572962 0.01172614 -0.02167786 0.00758319 0.00234997 -0.00522909 -0.01235483 -0.01697057 0.01016994 -0.00073142 -0.00655671 -0.02951806 0.00095852 -0.02740731 0.01425557 0.01754484 0.02220446 0.00790643 0.01039398 0.00784773 0.01220903 0.01149216 -0.00875525 0.02264699 -0.00456322 0.01139235 0.00752679 -0.00592692 -0.00181176 0.00693020 -0.01029365 -0.00220229 -0.01203374 -0.01095636 -0.01820635 -0.00969279 -0.01718581 -0.01268965 0.00293494 -0.00914383 0.00331076 0.02599870 0.01196369 0.01843132 0.02172876 0.02715400 0.01204734 0.02474895 0.01220035 0.02387144 -0.00360819 -0.00452209 0.00568359 0.02552036 0.00189890 -0.00696057 -0.00145257 -0.01552610 0.00970290 -0.00955536 0.01267238 -0.00282641 -0.00945162 0.00480740 0.01238365 0.00316730 -0.00519707 -0.01240656 0.01247040 0.00189814 0.03011491 0.00918575 0.02963038 0.02037945 0.02586867 0.01320863 0.01800343 0.02386549 0.00163976 0.00437042 0.01053331 0.02017921 0.01774865 -0.00800580 -0.00775923 -0.00868885 0.00629525 0.00079023 0.00546879 -0.00846328 -0.01670264 0.01413753 0.00745755 0.00679690 -0.00793118 0.01420134 0.00102805 0.01059172 0.01739295 0.01491443 -0.00062870 0.00575116 0.00442660 0.02289689 0.01494117 -0.01377762 -0.00087538 -0.01162330 -0.01800624 -0.00611060 -0.00359660 -0.00309200 -0.01239682 0.00767567 0.00949775 -0.00154679 -0.01358847 0.00934720 0.02338730 0.00019920 0.01181557 0.00057080 -0.00554347 -0.00155210 0.00574270 -0.00317677 -0.00591657 -0.00205315 -0.00389788 0.00385228 0.02158547 -0.00067077 -0.00210815 0.00293891 -0.01615082 0.00031145 -0.01814384 0.00222363 0.00004285 -0.00494627 0.00312123 -0.00701227 0.00249699 0.00374918 0.00518862 0.01849372 0.00444046 0.01490270 -0.00158809 0.01553729 -0.01157121 -0.01971333 -0.02135947 -0.01120636 -0.02476163 -0.01539413 -0.00881135 -0.01551271 -0.01681938 0.00426353 0.00949954 -0.01012446 -0.00964286 0.00658471 -0.02786006 -0.00984321 0.00000560 0.00965179 -0.00490330 -0.01472610 -0.00498065 -0.02075754 0.01843794 -0.00971077 0.03210653 -0.00057843 0.01716575 0.00026546 -0.00981192 -0.01319679 0.00648421 -0.00320496 -0.00362299 -0.01103482 -0.00867084 -0.01877955 -0.00415323 0.00834228 0.00523186 0.01595145 -0.03714640 0.02514872 -0.00326688 -0.01695233 -0.00136536 0.00639120 0.00640196 -0.00194122 -0.01485510 -0.00570190 0.01266356 -0.00840305 0.00685295 0.02045175 0.00542282 0.01770446 -0.00727083 -0.00607091 -0.00811990 -0.00778583 -0.02053625 -0.01219867 -0.01370807 -0.00223939 -0.00552962 0.00054669 -0.01174728 -0.00715193 -0.01850435 0.01166313 -0.00325770 -0.00301068 0.00972984 -0.01056081 -0.00054930 0.00330187 0.00390951 0.01125831 -0.01008564 -0.00839910 0.01182845 -0.00139111 0.03795888 0.02400423 0.02522760 0.00967633 0.00586898 0.01365203 0.00937260 0.01366069 0.00994635 0.00136689 0.02469418 -0.00050749 -0.02180269 0.00334577 -0.00210471 -0.00644408 -0.01703821 -0.00949586 -0.00330300 0.00679931 0.00450133 -0.01197064 -0.00182564 0.00361108 -0.01208146 -0.00654080 0.00544429 0.01871051 0.00811506 0.01398701 0.01911098 0.04092875 0.02003555 0.04071201 0.02436640 0.01262278 0.01931984 0.01241369 -0.00061186 0.00411440 -0.00568590 -0.00493439 -0.01720161 -0.02278809 -0.01034053 -0.00532720 -0.00245805 -0.00038738 0.00369315 -0.00369889 -0.01341779 0.00481308 0.00320020 -0.00957704 -0.00745811 -0.00643121 0.03101622 0.01766974 0.01058072 0.01665087 0.01467821 0.01884713 0.01831120 0.03244324 0.00720211 -0.00081239 0.00917826 0.00804397 -0.00604324 0.00113281 -0.00304331 -0.00117938 -0.01394323 -0.00872413 -0.00516272 0.00305889 -0.00223438 -0.01232174 0.00509605 0.00881118 0.00784830 -0.01851987 -0.00933739 -0.01027491 -0.00708867 -0.01112752 -0.01493312 0.00896519 0.01036974 0.02181387 0.00401145 0.01461771 -0.00193837 0.00029679 -0.00131327 0.00509693 0.00248015 -0.03031931 -0.00732622 -0.01383344 -0.01011356 -0.00131348 -0.01951817 0.00158723 -0.00922632 0.01284150 -0.00679735 0.00099753 0.01356343 -0.00105565 -0.01432481 0.01397776 -0.00910944 -0.03089503 -0.00849556 -0.01095935 0.00236395 0.00026977 0.00302510 -0.00556749 -0.01917827 -0.01463481 -0.02427668 0.00007310 -0.00392304 -0.00832108 0.00434590 0.00569816 -0.00656037 0.02699185 0.00276217 0.00561121 -0.01967680 0.00591546 -0.00328595 -0.01247978 0.01579056 -0.00879806 0.00035849 -0.00403800 -0.00318803 -0.01537925 -0.01805680 -0.00068511 0.00971318 -0.01452740 0.00045772 -0.00891421 -0.00076348 -0.00838629 0.01303671 -0.00842411 -0.00364074 -0.00113548 -0.00548708 0.00086430 -0.01554333 0.01590323 -0.01760721 -0.00389738 0.00594407 -0.00205574 0.00379204 0.00935362 -0.00361716 0.00368553 0.00851086 -0.00171822 0.00180961 -0.00818506 -0.01017391 -0.00523501 -0.02150841 -0.01947841 -0.02355263 -0.02421065 -0.00415474 0.00858217 0.00136821 0.00776124 -0.00360658 -0.00232274 0.00014453 0.00479422 -0.01648842 0.00070918 -0.01648023 -0.00198509 0.00580352 0.00455027 -0.00943665 0.00623031 0.01594070 0.00584407 -0.00646203 0.00545904 0.01191248 0.00649523 -0.01234864 -0.01724355 0.01733041 0.01193942 -0.02229992 -0.02074628 0.01192061 0.00117786 0.00231617 -0.00147774 0.00125092 0.00987010 -0.00615758 -0.01518527 0.02113316 0.01647593 0.00274518 0.00687845 0.00653616 -0.00479586 0.01049177 0.01081215 -0.00854861 -0.00335326 0.00956515 -0.00005682 -0.00115987 -0.00516491 0.00351962 -0.01727089 0.00429762 -0.00826479 0.00598117 -0.00346192 -0.01385981 0.00385346 0.00684167 -0.00108823 0.01951727 0.00128744 0.01174299 -0.00159158 -0.01164360 0.00000466 0.00843258 -0.00021667 0.00599329 0.00448956 -0.00910399 -0.00899843 -0.01599739 0.00294719 -0.00280873 0.01365619 -0.01404253 0.01447075 0.01345831 0.00269753 0.00483661 0.01107807 0.00307276 -0.00959485 0.01285126 -0.01265496 0.00663403 0.00949644 0.00240661 -0.01983490 0.00083550 0.01558851 -0.00827425 -0.01213766 0.00880861 0.01472421 -0.00316271 0.00314127 -0.00539273 -0.00550005 0.01711028 -0.00071582 0.00974717 -0.00027279 -0.00690208 0.00483711 0.01068356 -0.00815086 0.01014122 -0.00996006 0.02668422 0.00001470 0.01123752 -0.02064304 -0.00700983 0.00324052 -0.00107621 -0.00238843 -0.00972655 0.01246671 0.00810684 0.00301499 0.02150654 -0.00896247 0.01206442
-0.01680734 -0.01323046 0.00180598 0.00903231 0.00170836 0.02748397 -0.00786660 0.00030029 0.00608164 0.00479930 -0.00365762 -0.00571099 -0.00306471 -0.00556468 0.00253135 -0.00133151 -0.00319617 -0.01796018 -0.00162337 -0.02011656 -0.01175700 -0.00483729 0.00078306 -0.00719611 -0.00994883 0.00426622 0.00847051 0.01187432 -0.01642982 -0.01767988 -0.00628405 -0.00150107 0.00853637 -0.00713854 -0.00069938 0.00410674 0.01731239 0.00242729 0.00404763 0.00491557 -0.00245035 0.01566736 -0.01003787 0.01154948 0.00903252 0.00685821 0.02210340 0.00597992 0.00912187 -0.00047988 -0.01286486 0.00004630 -0.00130276 -0.00615667 -0.00145190 0.01473190 -0.00644296 -0.00564036 0.00719788 0.00380063 -0.01942243 -0.01449934 -0.00469613 -0.00770934 0.00453772 0.01610729 0.01019378 0.02041020 0.00634529 0.03476844 0.01015467 0.01497313 0.01993280 0.00443208 0.01140440 -0.01003852 -0.00270418 0.01706647 0.01361010 0.01335199 -0.01574589 0.01673740 -0.00830912 -0.00715860 -0.00099887 -0.00365192 -0.00490101 -0.00835790 0.00299157 0.01423154 -0.00430961 -0.00099730 0.00763041 0.01026826 0.01169768 0.02492705 0.04710633 0.02764958 0.02122139 -0.00690310 0.01152088 0.00670837 -0.01058034 0.01000229 0.00632212 -0.01570364 0.01935828 0.00929894 0.00078335 0.00356315 -0.00681693 0.00017360 -0.00236451 0.01479561 -0.00780665 -0.00663830 0.00679652 -0.00946924 0.00760277 -0.00969577 -0.00549240 0.00652327 0.02367894 0.02516887 0.01485312 0.02038003 0.03987169 0.01422222 0.00406812 0.01202749 0.00433532 0.00770831 -0.00491674 0.00328977 0.01756075 -0.00224551 -0.01650705 -0.02226665 -0.01260092 -0.00712656 0.00026692 0.00545527 0.01236781 -0.01579663 0.01009721 0.00134768 -0.01191461 0.00338602 0.00445695 0.01020334 0.02695560 0.01906339 0.02399217 0.03882340 0.04090411 0.00922055 -0.00106460 -0.00673225 -0.01111874 -0.01988331 -0.00771586 -0.00551948 -0.01827926 0.00178155 -0.02403925 -0.00429490 0.01481408 -0.00159888 -0.00893867 0.01771381 0.01781580 0.00636441 0.00206756 0.00132655 -0.00116732 -0.00489417 -0.00889313 -0.00724298 0.00423406 0.04156972 0.05379258 0.05525959 0.04421938 0.03945812 -0.00093864 0.00980730 -0.01990084 -0.02257210 -0.02984931 -0.00867440 -0.01988637 -0.01665514 -0.01757754 -0.01394629 -0.00109434 0.00502549 0.01361020 -0.01456453 0.00193203 0.01145765 -0.01438782 -0.00386301 -0.01227523 -0.01417622 -0.03196509 -0.00169311 0.01912221 0.03570662 0.03594135 0.05412500 0.05861980 0.03906000 0.00202388 0.01761597 -0.01991054 -0.03776193 -0.01717309 -0.00438319 -0.00863211 -0.00553059 -0.00083759 -0.02758829 0.00585588 -0.00218860 0.00916005 -0.00433174 -0.00992809 -0.01601457 -0.00971036 -0.02916310 -0.02291962 -0.02900685 -0.03251667 -0.00413163 -0.00440194 0.03909375 0.04964838 0.05116340 0.04860673 0.04265397 0.01823373 -0.01440045 -0.03375178 -0.03292514 -0.02750910 -0.01856235 0.00836139 -0.01112752 -0.02613398 0.00027732 0.00437293 0.00179965 -0.01353042 0.01560958 -0.01643227 0.00649559 -0.01568107 -0.02027703 -0.03798705 -0.06959332 -0.02604386 -0.01976874 0.00759727 0.02072732 0.01002871 0.02397576 0.02046224 -0.01091961 -0.02672204 -0.03818653 -0.04023284 -0.01774519 -0.02880723 -0.00452325 0.01143551 0.00413769 -0.01465805 -0.01530794 -0.00128947 0.00285293 -0.00615598 0.00126765 0.00885642 -0.00611651 -0.01397969 -0.02204890 -0.03531099 -0.03788821 -0.01652635 0.00329959 0.01237230 0.00386504 -0.00210006 0.01417446 -0.00068188 -0.02452052 -0.02187523 -0.03845619 -0.01334417 -0.02479293 0.00362723 0.02319995 0.00327040 -0.00434522 -0.00564769 -0.02879968 0.00152747 -0.01858112 0.00768946 -0.00455155 -0.01443508 -0.00295995 -0.00389452 -0.01876712 -0.02332474 -0.02383022 -0.02609192 -0.00011135 -0.01540571 -0.02413239 -0.01528900 0.00654979 0.00120864 -0.03214454 -0.03075120 -0.06713675 -0.04480754 -0.00113829 0.00673978 -0.00110064 -0.01191955 -0.00141290 -0.00026570 -0.02611122 -0.01356174 0.00057320 0.00834682 -0.00627174 -0.00809945 0.00325508 -0.03181017 -0.04155469 -0.04200531 -0.02694092 -0.02957479 0.00680523 -0.00762644 -0.02209873 -0.00095637 0.00812306 0.00064200 -0.00769544 -0.00644469 -0.01655029 -0.01229540 -0.01553955 -0.00772082 0.01212982 0.02288740 0.02851127 0.01305957 -0.01251131 -0.00450412 -0.00226290 0.00177062 0.01289339 -0.00400490 0.01007438 -0.01496896 -0.02840422 -0.03058734 -0.02430916 -0.03778219 -0.00211626 -0.01907329 -0.02099055 -0.00968290 0.04495762 0.02369431 0.03115949 -0.01329801 -0.02533044 -0.03664131 0.00648402 -0.02385689 -0.03854822 0.00915236 0.02099610 0.03210052 0.00153057 0.00767751 -0.00547663 -0.00547613 -0.01158837 0.00092699 -0.01949536 -0.01129842 -0.04246648 -0.01458700 -0.00545400 -0.01547939 -0.00898581 -0.00246457 0.01382892 0.00194851 0.03902107 0.03318162 -0.02332229 -0.01869860 -0.04858170 -0.02348954 -0.05084084 -0.03898049 -0.02740687 -0.00247910 0.01174322 0.04594164 0.00726437 0.00638867 -0.00247179 0.00158663 0.01013817 -0.00387139 -0.00768932 -0.01062213 -0.01986107 -0.01569424 -0.01387710 -0.00328250 0.02037399 0.02598527 0.02040363 0.00828534 0.01342556 0.01391036 -0.02482699 -0.05456660 -0.04674697 -0.01472956 -0.02460993 -0.02838544 -0.00716893 -0.01477670 0.00912446 0.01918169 0.01411826 0.01410427 0.00950889 0.00857641 0.00645909 -0.00498116 -0.01554077 -0.01728586 -0.00009890 0.00413029 0.00052131 0.01714538 0.03336159 0.02571788 0.04559709 0.04517229 0.02189019 -0.03774475 -0.03091968 -0.01103256 -0.02346434 -0.01957989 -0.01637575 -0.01461407 -0.00527322 0.02056167 0.00763028 -0.00137449 0.00035838 0.01105748 0.01407920 0.00167452 0.00679783 -0.00011443 0.00699331 0.01365469 -0.00520484 0.00340184 0.01732865 0.01451942 0.02566783 0.05288779 0.05082105 0.06483895 0.01807252 -0.02601702 -0.01243468 -0.02760876 -0.00544933 -0.00604013 -0.00842813 0.01465555 0.01772094 0.01424711 0.01688843 0.02368775 -0.00698096 0.01103982 0.00196871 0.01962343 0.00405089 0.01447652 -0.00467322 -0.00032232 -0.00267573 -0.01748695 0.00918531 0.03361123 0.04350056 0.04225955 0.02643466 0.02079762 -0.00966489 -0.02794195 -0.03732389 -0.02350580 -0.00023869 0.01253423 0.02078947 0.02505049 0.01318577 0.02416439 0.02417936 0.00077564 0.02398077 0.00302687 0.00367821 -0.00225003 -0.00478370 0.00151528 0.00174149 -0.00047887 -0.02020001 -0.00465500 0.01763512 0.04332353 0.05657853 0.05142532 0.05049321 0.02470090 -0.01439619 -0.00277877 0.00053963 -0.00397566 0.00135728 0.00975059 0.03430523 0.04317050 0.02983644 0.02101192 0.02585685 0.02861003 0.01086695 -0.00132389 0.01449823 -0.00352610 -0.00343121 0.03080545 -0.00151852 -0.00533826 0.01983353 0.00776024 0.02460332 0.03955876 0.03917454 0.05080557 0.04882370 0.04621587 -0.01080022 0.00941211 0.00899674 0.00699416 -0.01951453 0.00639691 0.01825757 0.03697234 0.04474254 0.02354995 0.03506251 0.00556173 0.01965633 -0.00414755 -0.01413151 -0.00708219 -0.02708465 0.00024301 0.02243501 -0.00703441 0.01676003 -0.00221006 0.02377015 0.04312562 0.03061223 0.03088608 0.04354970 0.01970894 0.00948221 0.01465523 -0.00075256 0.01261867 0.00545813 0.01466328 0.00909634 0.01046260 0.02046491 -0.00442962 0.01537124 0.00211417 -0.00255904 -0.00239180 0.00556239 -0.00508814 0.00302347 -0.01262080 -0.00690540 -0.00012710 0.03355091 0.03462944 0.04980493 0.04687177 0.04139894 0.04805913 0.03532156 0.04030888 0.02843517 -0.01268349 -0.01269070 -0.01024120 -0.00834110 -0.00716163 0.01006592 0.01167099 0.01669859 0.01238239 -0.00210927 -0.01860440 -0.01946559 0.00389657 -0.01046195 0.00268554 -0.01473884 0.00151237 -0.00678233 -0.01001131 -0.00052415 0.00305686 0.01834370 0.00506775 0.02508597 0.01491446 0.05431087 0.02345146 0.00779711 0.00686021 0.00356689 -0.03084374 -0.03645536 -0.01275250 -0.00512074 -0.00318297 -0.00301870 -0.00787064 -0.00748427 -0.00476785 -0.01678269 -0.01248178 -0.01271936 -0.00004851 0.00248777 -0.00509065 0.01350447 0.00523051 0.00769234 0.00061148 0.00166743 -0.00719698 0.02913847 0.02077560 0.02586711 0.03532157 0.00879138 0.01281523 -0.03050041 -0.03055976 -0.02749864 -0.01448034 -0.02912574 -0.02036331 -0.00557737 -0.01287033 -0.00500396 0.00198968 0.00197729 0.00823143 0.00904223 0.01507928 -0.00593153 0.00385991 0.00132913 -0.02198098 0.00491439 0.00013859 -0.00211438 0.00272210 0.00036845 0.00320512 -0.00603729 0.00167861 -0.00076145 -0.01017433 -0.01768919 0.00917973 -0.01161278 -0.01639437 -0.03130819 -0.03235070 -0.01900321 -0.00809046 -0.01138610 0.00321231 -0.01034273 0.00233711 0.00174132 0.00024275 -0.00161878 0.01153537 -0.00434115 -0.01541545 -0.01400981 0.00414884 -0.01410720 -0.00913146 -0.00764765 -0.00830350 0.00358675 -0.00182888 -0.01331885 -0.00942803 -0.00527400 -0.01673969 0.00121228 -0.00328716 0.00850368 0.01601414 0.00212305 0.00857294 -0.00595597 -0.01179932 -0.01158484 0.00403317 -0.00857694 0.00194271 0.01007023 0.00884627 -0.00018652 0.01047174 -0.00099318 0.01506406 -0.01424266 0.00179087 -0.00957678 -0.00497846 -0.00625794 0.01116874 -0.00533590 0.00555397 0.00811883 0.00336360 -0.00031856 -0.00512526 0.00630388 -0.00376041 0.01529709 0.00719408 -0.01857805 0.00593334 -0.01811538 0.01376838 0.00495860
0.00162226 -0.01121786 0.00844947 -0.01900975 -0.01058911 0.01555482 -0.02123489 0.00954695 0.00355728 0.00810624 -0.01725076 -0.00023777 0.00551391 0.01269816 -0.00646465 0.00822733 0.01087246 -0.00504527 -0.00628179 0.01532066 0.00983979 0.01935381 0.00263746 -0.00124323 0.00320208 -0.02129559 0.00060157 0.00680049 -0.01933251 0.01744801 -0.00332972 -0.00530695 0.00324792 -0.00297311 0.00410236 -0.00922738 -0.00898565 -0.00007726 -0.02170057 0.00018079 -0.00805377 -0.00577835 -0.00843289 -0.00720198 0.00159347 0.00174343 0.00937832 -0.01074392 0.00245322 -0.00105090 0.01256109 -0.00566186 -0.00003211 0.01108313 0.00457728 0.01183467 0.01242157 0.00807655 0.00131114 0.00728692 0.00390475 0.00504992 0.00937753 -0.00298731 0.00903267 -0.01268673 -0.00133201 -0.02218769 -0.00416547 -0.00811760 -0.01451189 -0.02013595 0.00354148 0.00854621 -0.01974046 0.00865682 -0.00472755 -0.00729933 0.00196275 -0.00713396 -0.00151391 0.01629371 -0.00617940 -0.01029408 0.00524136 0.02337339 -0.00765742 0.00505357 0.00637022 0.01440706 0.01510448 0.00046476 -0.00465530 -0.01472674 -0.01405120 -0.00100305 -0.02263807 -0.01447190 -0.01317350 -0.03080036 -0.00285206 -0.01544120 -0.00258159 -0.00069855 0.00429300 0.00859258 0.01637583 0.01098452 0.02059191 0.01313397 -0.01586095 0.00024448 0.01050402 -0.00667820 -0.01087668 0.00290766 0.00591464 0.00722630 -0.01207235 0.01700664 -0.03392263 0.00503068 -0.01847614 -0.02325726 -0.02337432 -0.03106787 -0.02712648 0.00329048 -0.01945910 -0.00827416 -0.01642422 -0.02794013 -0.00243330 0.00485324 -0.00254988 0.01271525 -0.00373098 -0.00747315 -0.00707107 -0.00203582 0.00295735 -0.01064140 -0.00092712 -0.00777993 0.00546522 0.01849267 0.00123135 -0.00428373 -0.01352242 -0.02844711 -0.04911641 -0.04687355 -0.02709656 -0.02897675 -0.01085134 -0.02924758 -0.01766183 -0.00937831 0.00254593 -0.00115900 -0.00154417 0.00577722 -0.00229493 0.01927209 0.00457089 0.01110045 0.00192210 0.00096712 -0.00871416 0.01594152 0.01150603 0.01570469 -0.00440484 0.01346558 -0.01325999 -0.01953932 -0.01359655 -0.03987351 -0.03036999 -0.02660413 -0.04732881 -0.02029447 -0.00126260 -0.00640989 -0.00966406 -0.01103679 -0.03121702 -0.02133365 -0.01585273 -0.00032814 0.00464903 0.02867039 0.01250908 0.00063076 -0.00013779 0.00336288 -0.00234509 0.01726167 0.01873972 -0.01968392 0.00758535 0.00611693 -0.01573630 0.00012671 -0.00002735 -0.01549419 -0.02097981 -0.02833680 -0.01306837 -0.02107064 0.02275943 0.01362783 0.02146463 -0.00309211 0.01262527 -0.00153458 0.00739284 0.01223224 -0.00068592 -0.00003659 0.01570371 -0.01228812 -0.00205847 -0.00462933 -0.01031736 0.00806645 -0.00684136 -0.00430690 0.00191415 0.00636134 0.00941564 0.00050263 0.01462149 -0.01479184 -0.01991813 -0.03046619 -0.01249004 0.02444818 0.01392810 0.02492755 0.03792464 0.02347316 0.01318664 0.02124002 0.00772981 0.00560315 -0.00341510 0.01374087 0.02214838 0.02233835 0.01444772 -0.01359406 -0.01589546 0.00924299 0.00551354 -0.00203086 0.01572719 -0.01070177 0.00468176 -0.00865790 -0.02532882 -0.04972833 -0.04855535 -0.04726597 -0.00404859 0.03067290 0.04335126 0.05504125 0.03782989 0.03652084 0.03465641 0.02181329 0.03644915 0.01956375 0.01835771 0.01825126 0.02024753 0.00850023 -0.01010893 0.01913031 0.00305047 0.00875102 -0.00544392 -0.00741794 -0.00125237 -0.00674445 0.00117201 -0.00200695 -0.02018634 -0.02392694 -0.05666135 -0.03003005 0.00058541 0.05378403 0.05752245 0.06248763 0.02105080 0.03706104 0.02456085 0.04197399 0.01354007 0.02042856 0.03373491 0.01225872 0.03555908 0.01659220 0.00023499 0.00356550 0.01070185 0.00660264 0.00849839 -0.01032811 -0.00182802 -0.02093830 -0.00516681 0.00483635 -0.01725343 -0.03692654 -0.04611631 -0.03987189 0.02430903 0.04505225 0.03847084 0.04884402 0.02824391 0.01465519 -0.01475816 -0.00630123 0.00231643 0.00851317 0.01657565 0.01002654 -0.00716099 0.00716206 -0.00035422 -0.00888355 -0.02024123 0.00425198 0.01119506 -0.01387155 -0.00038680 -0.02315181 -0.00637019 -0.00440041 -0.01864848 -0.00824897 -0.03410867 -0.00348988 0.04117673 0.04815683 0.05296831 0.03691963 -0.00001871 -0.01822317 -0.01998678 -0.02499367 -0.01909558 -0.01311958 -0.00637113 0.00120283 -0.00392977 -0.00373751 -0.02898689 -0.01233025 -0.01399080 0.00638547 0.00306166 -0.00658634 -0.00476635 -0.00667439 -0.02114393 -0.00097714 -0.01897443 0.00962306 -0.00138283 -0.01156628 0.02248890 0.03004255 0.02777894 -0.00618626 -0.00499590 0.00302911 -0.03130547 -0.03297937 -0.02313810 -0.02396608 -0.03296246 -0.01380972 -0.01556722 -0.00942102 -0.00234422 -0.00412022 0.00477135 -0.00795142 -0.00118301 0.00851129 0.00989900 -0.00588491 -0.01519014 -0.00232278 -0.01061122 -0.01814913 -0.01308034 0.00273103 -0.00180674 0.02203337 0.01194106 0.01701098 -0.00009114 -0.02580067 -0.03029644 -0.03304630 -0.02112322 -0.04079055 -0.00182962 -0.00962522 -0.00860858 -0.00951328 -0.00236891 -0.00398919 -0.00783091 0.00108304 -0.01012027 -0.00610187 -0.00771033 -0.01118673 -0.00653374 0.00818924 0.00028085 0.00200248 -0.01091823 -0.02173683 0.00162708 -0.02130397 0.00741459 0.01390447 0.00725868 0.01037638 -0.01277232 -0.02375491 -0.00863818 -0.00818577 -0.01684392 -0.00841782 -0.01837305 -0.01279563 0.02181320 0.00016308 0.00977568 -0.00729092 -0.01154563 0.00738553 0.01705740 0.00180626 0.00744872 -0.00537312 -0.01368126 -0.01217398 -0.02099567 -0.02352899 -0.01556783 0.01801708 0.03563905 0.01572419 0.02774028 0.00749490 0.00006919 -0.02363060 -0.01971463 -0.03328853 -0.03056974 -0.00821842 -0.01757571 0.00309200 0.00702080 -0.00329411 -0.02038885 -0.01111642 -0.01414987 -0.01391786 0.01078357 0.02031656 0.01495051 0.00085607 0.00406258 0.01513533 -0.00788090 -0.01345396 -0.01349455 0.01395934 0.05063971 0.04001047 0.02794921 0.00331649 -0.01952962 -0.00290882 -0.03436252 -0.02154654 -0.02050764 -0.02463423 -0.02668548 -0.00134004 0.00770517 0.00233970 -0.01195360 0.00291380 -0.01546221 -0.00128611 0.00447616 -0.00641937 0.00910708 0.01074626 0.00481319 0.00951541 -0.00165633 -0.00438321 0.02871086 0.04975843 0.05282081 0.05137616 0.02183382 -0.00247949 -0.02371471 -0.04198868 -0.05383778 -0.03755851 -0.01449087 -0.02268760 -0.00246201 -0.01275411 0.01108603 -0.02364609 0.00314058 0.00311294 -0.00485752 0.00391698 -0.00818513 0.00568895 0.00192544 -0.00026769 0.01145812 0.00516910 0.00467551 0.01517221 -0.00242758 0.01122187 0.03405937 0.03993398 0.02834366 0.00433777 -0.02992702 -0.05667522 -0.01182002 -0.02625802 -0.02781059 -0.02714735 -0.01245850 -0.00978118 -0.02073014 0.00204060 0.00402742 0.01837086 0.00091439 -0.00554355 -0.02000100 -0.01242408 0.00866998 -0.01849128 -0.00111440 0.01593178 -0.00041763 -0.00712429 0.00491337 0.01204012 0.01591056 0.00098273 -0.00254647 -0.01177207 -0.03301500 -0.04040886 -0.03197374 -0.02760875 -0.02427892 0.00554036 0.00239245 0.00974091 -0.00878963 -0.00975718 0.02179913 -0.00676822 -0.00792014 0.00711817 0.00259461 -0.00758543 0.00067017 -0.00942361 0.01164589 0.00426325 0.01071659 -0.01672404 0.01951592 0.00162181 0.01158931 0.00576505 -0.00470019 -0.02454938 -0.02890639 -0.05292456 -0.02542026 -0.01467447 -0.01391192 -0.00844821 -0.01687663 0.00495807 0.00224180 -0.01773123 0.00361482 -0.00045724 -0.00438748 -0.01096016 -0.00796908 0.00692250 -0.02509335 0.00816283 0.01914892 0.03237560 0.01605845 0.01966183 -0.00306339 0.00043798 -0.00759931 -0.01758781 -0.01464005 -0.02314177 -0.03437505 -0.01754652 -0.01178896 -0.01680881 -0.01047529 -0.00561329 0.01486893 0.00871810 0.00948408 0.01032864 -0.00448148 -0.00170803 0.00428021 0.00126495 -0.00809924 -0.00086275 -0.00565967 0.01007793 -0.00026555 0.05103447 0.00987647 0.00661928 -0.01399091 -0.00462524 -0.00423970 -0.01214111 -0.01840062 -0.01725772 -0.01978758 -0.00114226 -0.00650380 0.01268781 -0.00527627 -0.00072630 0.00347902 0.01363618 -0.01026980 -0.00171809 -0.00804410 0.00406402 -0.00379705 0.00181116 -0.00634853 0.00657353 -0.01669590 0.00565853 0.01959530 -0.00374641 -0.00269622 0.01372849 -0.01868728 -0.00341725 0.00854194 -0.01385055 -0.00811808 -0.00951418 -0.00783740 0.00398510 -0.00611297 -0.00121496 -0.01163069 0.00468225 0.01175040 -0.00313766 0.00126613 0.00971620 0.01767656 0.00888338 0.00681940 0.01003826 0.01210158 -0.00853682 0.00112802 -0.00398952 0.00121850 -0.00287622 -0.00635982 -0.00474307 0.00303955 0.01104201 -0.00847893 -0.00121271 0.01026219 0.02930388 0.01464745 -0.01189590 0.00451430 0.02192729 0.00213675 0.02450676 0.00475062 -0.00808153 -0.00313119 0.01199214 0.00098644 0.00729091 -0.00195981 0.00789674 -0.00558366 -0.01552815 0.00949176 -0.01935049 0.00179660 -0.00165403 -0.00269108 -0.00381672 -0.02208086 0.00740911 0.00236785 0.00369296 -0.00181329 0.01321730 0.00006043 -0.01073185 -0.00757010 -0.01345710 0.02119030 -0.01714313 0.01120318 0.00369595 0.00486265 -0.00135842 0.01420909 -0.00080248 0.00283019 -0.00834743 -0.00092552 -0.00913103 0.00584463 -0.00005758 -0.00227015 -0.01553601 0.00183680 0.02624101 0.00857166 -0.00163949 0.00295587 0.00271195 0.01538620 0.01013613 0.00669660 -0.00496055 0.00861546 0.00369964 -0.00464996 -0.00725269 -0.00603320 -0.01551301 -0.00694201 -0.01504874
-0.00295222 -0.00710673 0.02011999 0.01973190 -0.00431131 -0.01323749 0.01070287 0.01229377 -0.01049498 -0.00675323 -0.00983187 -0.00827267 -0.00360966 -0.00990906 -0.01695913 -0.00831489 0.03202977 -0.00100731 0.00058823 0.00963517 -0.00625602 -0.00232197 0.00212223 0.02104494 0.00632351 -0.00671785 -0.00363059 0.00892845 -0.01417531 -0.01166080 -0.00345866 -0.02337995 -0.00625493 0.00144095 -0.01144112 -0.01122576 -0.00974374 0.02082055 -0.00645137 -0.00353359 0.02897268 0.00630815 -0.00023741 -0.00054581 -0.00603866 0.01104480 0.01143644 -0.00532261 -0.00892604 -0.00664818 -0.01090346 0.00885089 0.01262280 0.01078228 0.00454532 -0.00143439 -0.00029316 0.00107511 0.00139069 -0.00686242 -0.00478913 -0.00539435 -0.01362141 0.01441544 -0.00606282 0.01679169 0.00171556 0.00666269 -0.00534918 -0.00263267 0.01263714 0.02965435 -0.00072704 -0.00267057 0.00265988 -0.00080443 0.00308276 0.00019050 -0.01207652 -0.00642159 0.00890585 0.01589075 0.00006102 0.00329145 0.00867314 0.02139290 -0.01141760 0.00531034 0.00872235 -0.00902941 0.00872939 -0.00781039 -0.00625009 0.01328086 0.00343031 0.00317879 -0.00768708 0.01883968 -0.01165596 0.00081460 -0.00388136 0.00205006 -0.00084317 0.01126295 0.02136067 0.00819016 0.01564009 -0.00147271 0.02037151 0.00124079 0.00429754 0.00249122 -0.02129022 0.00283193 0.01341011 0.00464670 0.01610939 -0.00416647 0.01326840 0.01443146 0.00164541 0.00972461 -0.00118087 -0.00633872 -0.02366150 -0.03084540 -0.01304342 -0.01949774 -0.01988468 0.00218487 0.00177324 0.00953176 -0.01466068 0.01988052 0.01041132 0.01087572 0.00124838 0.00780324 0.00414456 0.00127708 -0.00059222 0.01260968 -0.01080656 0.01156427 -0.01414342 0.00174731 -0.00321194 -0.01349355 0.00784548 0.01172892 -0.01221807 -0.01663688 -0.03303518 -0.03720858 -0.01374940 -0.01751015 0.00231960 0.02309728 0.02209545 -0.00535705 -0.01392850 -0.03350659 -0.00274709 0.00433879 0.00184939 0.00666652 0.00772533 -0.00420299 -0.01089514 -0.00251850 0.02057618 0.01118943 -0.00189617 0.01394177 0.00446570 -0.00506888 0.01334996 -0.00179253 -0.03371955 -0.02880301 -0.04965418 -0.04321104 -0.02731601 -0.01033596 0.00678608 -0.01580943 -0.01221448 -0.01580151 -0.01783452 -0.01427131 -0.00193635 0.01268086 -0.01881360 -0.01350416 -0.00735744 0.01677412 -0.00293526 0.00636170 0.01637577 0.00812004 -0.00287399 0.01288921 -0.01427478 0.01765391 0.00060022 -0.01950654 -0.03793633 -0.05255860 -0.05949883 -0.04643519 -0.00942658 -0.00965176 -0.02552897 -0.01637013 -0.01740921 -0.01799700 -0.01793345 -0.02016801 -0.02352836 -0.00456819 -0.00531828 0.01440822 0.00242294 -0.02607677 0.01430250 -0.01214861 0.00359203 -0.00239187 0.01861171 0.02046942 0.02118111 0.00425666 -0.00496039 -0.02393574 -0.03572406 -0.04189628 -0.06461897 -0.03607630 -0.02363035 -0.01532601 -0.03013677 -0.00578906 -0.02630501 -0.01830414 -0.03298588 -0.03504229 -0.01754210 -0.00462356 -0.00836307 -0.01296062 0.00751796 -0.00157357 0.01685436 0.00385963 0.00673948 -0.01043311 0.00335582 0.01520077 0.00184417 0.00728163 0.00584317 -0.02851454 -0.02773160 -0.04948688 -0.03882645 -0.02228933 0.00074803 -0.01877328 0.00043518 -0.00377103 -0.02971855 -0.01658261 -0.00644038 -0.01094829 -0.00933687 -0.02285667 -0.01192278 -0.02121062 0.00008589 -0.01999766 -0.01185835 0.00140640 0.01212400 0.01024861 0.01549610 0.00780233 -0.00896277 -0.00248818 0.00350923 -0.03763114 -0.03873243 -0.02522062 -0.02272350 0.02213006 0.03054662 0.00650182 0.01071592 0.01277366 -0.01188486 0.01084894 -0.00573164 -0.02627916 0.00471966 -0.02420163 0.00707095 -0.02421613 0.00059869 -0.00355733 -0.01698044 0.01074501 -0.00803872 0.00779863 0.01120188 0.00025442 0.01798926 0.00808255 -0.00839337 -0.00365100 -0.00878794 -0.01866355 0.01448066 0.04589882 0.02436449 0.00523297 0.00112032 0.01639489 0.00512875 0.00934876 0.00920502 0.01420438 0.01463855 0.01254067 -0.00569497 -0.02598754 -0.00019020 -0.00538598 0.01534328 -0.00290459 0.00769103 -0.00662549 -0.00190230 0.01357095 0.00093445 0.01010235 0.01966209 -0.00949869 -0.01899593 0.00541760 0.02404948 0.03360578 0.00321769 0.00042289 0.00594930 0.01662471 0.00192425 0.00792336 0.03195030 0.01610855 0.02140929 0.00168551 0.01623126 -0.01271105 -0.01797923 0.00114441 0.00337411 -0.00830831 0.00289240 0.00100701 -0.01859779 0.01075249 0.00290556 0.00849741 0.00593374 0.01033097 0.01667445 0.02829801 0.03068115 -0.00085063 -0.03164677 -0.01389952 0.00055370 0.01079802 0.00671164 0.00459044 0.01474088 0.02560923 0.02974210 0.03395337 0.01585871 0.00090076 -0.00584997 -0.00307569 0.02176053 -0.01405923 0.00987137 -0.00802778 -0.00567816 0.01471795 0.00771415 0.01674128 0.00077185 0.00644117 0.01221581 0.02614543 0.02889664 0.01357551 0.00231502 0.00947189 0.01569430 0.01207315 0.02962885 0.02884082 0.02482280 0.03432277 0.03300202 0.03022691 0.01013925 0.00129534 -0.00861748 -0.00807557 0.00894189 0.00142309 0.00399347 -0.00188920 0.00893508 0.03256781 0.01282334 0.01507179 0.02008331 -0.01357636 0.02895821 0.02238235 0.01916070 0.01878143 0.01423730 -0.00270483 0.01789810 0.02211785 0.01454401 0.01236438 0.02115821 0.04060374 0.03967722 0.01635364 0.01743919 -0.00619310 0.00133422 -0.00164477 0.00664231 -0.00976699 -0.00269230 0.01624980 -0.02088243 0.00764253 0.03889495 0.02608775 0.01651292 0.01798567 0.01125095 0.01866942 0.00537763 0.00843467 0.02662134 0.03252856 0.03536807 0.02572710 0.03112911 0.04302707 0.01321301 0.04005037 0.02269164 0.00463642 0.00883044 -0.00219380 0.01142442 -0.00419863 0.00133885 0.00316940 -0.00065710 0.00942231 0.00992051 0.01739118 0.01859902 0.01132499 0.01490457 0.01383643 0.01077353 0.00057782 0.00049262 -0.00447686 0.02432995 0.03235483 0.02066410 0.03131288 0.01598138 0.01203591 0.02409458 0.01675300 -0.01149918 0.00266702 0.00237705 -0.00069347 0.01162909 0.00408026 0.00185166 0.00117132 -0.01431357 -0.00929043 0.00776688 0.00077366 -0.00073847 -0.00086881 0.00655292 0.00188168 -0.00868120 -0.01998691 0.00623470 0.01199301 0.01180988 0.03690968 0.04583782 0.03646676 0.02376183 -0.00788804 -0.00526726 -0.00066112 -0.01043349 -0.01576500 -0.01077224 0.01102038 0.01519069 -0.01235279 0.00654486 -0.01926164 0.02871209 0.00451896 0.00628352 0.01973252 0.00040190 -0.00460978 -0.00173464 0.00817365 -0.00683795 -0.00907778 -0.01995101 -0.00216741 0.02202920 0.01923521 0.01332162 0.02015294 0.01805219 -0.00529648 -0.01598195 -0.01459200 -0.04470628 -0.01708334 -0.00984442 -0.00397001 0.01407385 -0.01067790 -0.00419056 0.00576074 -0.00866269 0.00660117 -0.00633883 0.01746552 -0.01648406 -0.00869798 -0.02002162 0.01163472 0.00956774 -0.01779158 0.00799587 -0.01631081 0.01457653 0.00922385 0.01722448 -0.00356032 -0.00646092 -0.03091857 -0.03137194 -0.00518822 -0.01720413 -0.02097116 -0.01735932 -0.00836903 -0.00226766 -0.00560478 -0.01564822 0.00982227 -0.00511164 -0.00229153 -0.00636096 0.00354344 -0.02983324 -0.01697028 -0.00647076 -0.00564530 -0.00034647 -0.00392222 -0.00990948 -0.00158945 0.00663121 -0.00022619 0.00336733 -0.00588134 0.00665322 -0.02823110 -0.01780411 -0.01842743 -0.00773456 -0.03036734 -0.00064726 -0.00302593 -0.00407115 0.01488312 0.00823408 -0.01337676 -0.00028776 -0.00795736 0.00475324 -0.00009157 0.00873772 -0.00529367 -0.01838671 -0.01109186 -0.02261836 -0.02003732 -0.01315957 -0.03322478 -0.00105563 -0.02063270 -0.00982911 -0.02868951 -0.01752741 0.00346056 0.00301518 -0.00441241 -0.01940397 -0.01532521 0.00339924 0.00162612 0.00217247 0.00477391 -0.00944010 0.00612368 -0.00278806 0.00135166 0.00699283 -0.00512186 0.01392786 0.00259012 -0.00431597 -0.02914334 -0.02524978 -0.02984166 -0.02062276 -0.02543378 -0.01412170 -0.02105973 -0.00732369 -0.00831198 0.00438323 -0.00434806 0.00892255 0.01212884 -0.00807903 -0.01248193 0.00968257 0.01184753 0.00110469 -0.00820353 -0.00103903 -0.01905604 0.00167976 -0.00215295 -0.00118253 0.00140944 -0.01093613 -0.01720849 -0.01291139 0.00692451 -0.02557149 -0.03008308 -0.03686478 -0.02700563 -0.01588685 -0.01676658 0.00356818 0.00472802 -0.00556697 -0.00998729 -0.00012638 -0.01541781 -0.00834378 -0.00408681 -0.02194460 -0.00942358 0.01421207 0.01732186 -0.00706046 0.00133399 -0.00524812 -0.00291146 0.00716373 -0.00137412 0.00472897 -0.01314765 -0.01330935 -0.00904937 -0.04000224 -0.02488979 -0.03437665 -0.02024371 -0.02677225 -0.00125552 -0.01632963 -0.00604529 -0.01446418 -0.01281352 0.00726374 0.02023063 -0.00207955 0.01651825 -0.00965386 0.01273641 -0.01002224 -0.00570601 0.00200568 0.01180758 -0.00369786 -0.00118526 0.00326686 -0.00209254 0.00310980 -0.00183493 0.00712189 -0.00697300 -0.01542794 -0.01356989 0.00672168 -0.01091064 -0.02895244 -0.01495580 -0.01652585 -0.00446403 0.00490623 0.01490606 -0.02006994 -0.00820923 0.01877020 0.00207515 -0.01042875 0.02599909 0.00444772 0.00180748 -0.01403806 0.02011641 -0.00825707 -0.01891807 -0.01331583 -0.00074434 -0.00741113 0.00428970 0.01986601 -0.01009879 0.00703585 -0.00688333 0.00725216 -0.01902813 0.02142526 0.00585642 0.00442898 0.01667399 -0.00512306 -0.01159917 0.00697676 0.01252642 -0.01701941 -0.02148777 -0.00312565 -0.00209217 -0.00690956 0.02156727
-0.00136432 0.01427913 0.00667135 0.00628067 -0.00396875 -0.02071305 -0.00242915 0.00895290 0.01203391 -0.00629261 0.00462715 0.01371855 0.00645361 0.00120943 0.01021063 -0.00190862 -0.00212945 0.00675452 0.00013757 0.00797843 0.00555219 0.01420289 -0.00913947 0.00353524 0.00906804 0.01166832 -0.00709248 0.00541487 -0.00024598 0.01289155 -0.00941071 0.00628065 -0.00524058 -0.00572928 0.00915289 0.00465719 -0.00077997 0.00201127 -0.00101682 -0.01330304 0.00330564 -0.01930561 0.00258336 0.00263720 -0.00022284 0.00878806 -0.00593139 0.00468032 0.01500462 -0.00370986 -0.00268272 0.01160985 -0.00079677 0.00453495 0.01235259 -0.00631032 -0.00967585 0.00531682 0.01725685 -0.00654615 0.00531924 -0.00819220 0.01343017 -0.01138294 -0.01536993 0.00493286 0.00366169 -0.00005231 -0.00241610 0.00869091 0.00189909 0.00438043 -0.01459740 -0.00197382 0.01169813 -0.01377294 -0.00292411 0.00200785 0.01405919 -0.00318348 0.01344843 0.00069459 -0.00355194 -0.01282815 -0.00488517 0.01728614 0.00277480 -0.01352255 -0.00409136 0.00068787 0.00962959 0.00344363 0.00616578 -0.01504385 0.00363193 -0.00787160 -0.01207824 -0.01974744 -0.00770636 -0.02517304 0.00183840 -0.03218935 -0.01115071 -0.00258003 0.00718206 0.00646539 -0.02616814 0.00333087 0.02107412 0.00126376 0.01133549 0.00421204 -0.00470104 0.00785290 0.01787091 0.00277555 0.00359168 -0.00675021 0.02356722 -0.00106676 0.01783204 0.00703884 -0.00404876 0.00391390 -0.02131352 -0.04564022 -0.03462705 -0.04172323 -0.04587992 -0.03752561 -0.01982508 -0.00346672 -0.01884146 -0.00407763 -0.01371621 -0.00259202 -0.00292501 -0.01119500 0.01121674 -0.01300041 -0.00990178 -0.00141825 -0.01522090 0.00306446 0.00632479 0.01554715 -0.00013205 -0.02223117 -0.00475148 -0.01616130 -0.00583838 -0.00356681 0.01307337 -0.00486592 0.00754114 -0.00330365 -0.00483374 -0.00149290 0.00532743 -0.01155202 -0.00483666 0.00038342 -0.02005944 -0.00201915 -0.01067958 0.00091211 -0.01148819 0.00279826 0.01234209 0.00667610 -0.00528557 0.01251381 -0.00664850 0.00452537 -0.00818459 -0.03246943 -0.01610444 -0.00191657 -0.00286545 -0.00659526 0.01947491 0.04041335 0.06589483 0.06287843 0.05707411 0.04289900 0.02252250 -0.00546647 0.00281036 -0.01569939 -0.02656351 -0.02173534 -0.02902701 -0.00429322 -0.00814087 0.00514230 -0.00742298 -0.01133039 -0.00455649 0.00536367 -0.00908340 -0.02912350 -0.02042980 -0.00578609 0.00154822 -0.02562457 0.00759980 0.00036549 0.03674737 0.07089632 0.08016007 0.08654449 0.04718674 0.02254379 -0.00987444 -0.02772454 -0.04100404 -0.01011638 -0.01393316 -0.01495193 -0.02580026 0.00031996 -0.02330768 0.00619556 0.02622261 -0.00886128 0.01336335 0.00926277 0.00342809 -0.00180382 -0.01203086 -0.00579665 -0.00884573 0.00851894 -0.02223931 0.02016155 0.00235202 0.00628894 0.01719779 0.02411721 0.00837590 0.00252795 0.00367956 -0.00266622 -0.01612385 0.01402362 -0.00087739 -0.02735072 -0.02381245 -0.02044589 -0.00355957 -0.01355658 -0.01323619 -0.01230330 -0.00437949 -0.00158054 0.00511402 -0.01152565 0.00852076 0.00097768 0.00685502 0.00000455 0.02421383 -0.00121972 0.00922189 -0.03189551 -0.01395393 -0.00716370 -0.00424500 0.01057321 0.01974735 0.01295338 0.00479158 -0.00374446 -0.00494750 -0.00193229 -0.02326732 -0.00326223 -0.00512418 0.00610237 -0.00993197 0.01681122 0.00908663 0.01259072 -0.00705146 0.01201021 -0.00557680 -0.00638425 0.00451844 0.00110058 0.00639023 0.01058596 -0.02800685 -0.03422797 -0.02693752 -0.01924313 -0.01326579 0.02303745 0.02715931 0.02661783 0.00988115 0.00883797 0.00742866 0.00193138 -0.00525404 0.00744725 0.00289684 -0.00085555 -0.01234290 -0.00209280 0.00802231 -0.00604348 -0.00676438 -0.01358055 0.01388955 -0.02032865 -0.01051242 -0.03046338 -0.03856686 -0.03756614 -0.03460523 -0.01225150 0.02091937 0.02118645 0.02954338 0.02565086 0.05089255 0.05471185 0.04544768 0.00615144 0.01425384 -0.01177915 0.00140326 0.01042364 0.00503690 0.00740023 -0.00710201 -0.01617740 0.00738293 -0.00823464 -0.00686061 -0.00995982 -0.00129844 -0.02209713 -0.01412969 -0.02826895 -0.04807439 -0.04962515 -0.03999998 -0.01021359 0.03950334 0.03524228 0.03079761 0.03255020 0.05811698 0.03896000 0.03721718 0.00124723 -0.00481348 -0.00592195 -0.01227365 0.00569574 -0.00055131 0.00444494 0.00265509 -0.01097604 -0.00373276 -0.00044008 0.01493097 -0.02821329 -0.01682783 -0.01021793 -0.01581164 -0.04520328 -0.05881056 -0.04102764 -0.00370222 0.02634796 0.02831852 0.01218288 0.00860195 0.02836914 0.02695663 0.03120223 0.01036266 0.01351885 -0.01941493 -0.03042705 -0.00623959 0.01004258 -0.00027311 0.00688342 -0.00944616 -0.00878281 0.01128849 0.02648891 -0.02091352 -0.01595540 -0.01836009 -0.03710131 -0.02848678 -0.04717590 -0.02648633 -0.01852783 -0.01474931 -0.00977457 -0.01229360 -0.00659683 -0.01095840 0.02252273 0.00059994 -0.00245939 -0.00150372 -0.00179608 0.00378165 -0.01712492 -0.01818878 0.00715731 -0.00210209 -0.01186283 0.01260914 -0.01291128 0.00625120 0.00825792 -0.00136171 -0.00713518 0.00070250 -0.01103689 -0.00840311 -0.01474412 -0.01524221 -0.03298220 -0.03178957 -0.01607019 -0.02068169 -0.01089375 0.00192989 -0.01060712 -0.01861073 0.00433418 0.01002793 -0.00991148 -0.00634283 -0.00722991 -0.00742365 0.01070552 0.01087444 -0.00436368 -0.00002625 -0.00107538 0.00817713 0.01013737 0.01558084 -0.00867448 0.00713424 -0.01139790 0.02610417 -0.01297280 0.00356075 -0.01055363 -0.02673720 -0.00721403 -0.00736866 -0.01506333 -0.00353197 -0.01554420 0.00225188 -0.00146539 -0.03159168 -0.01633663 -0.01008491 -0.00776527 -0.00766295 -0.01170086 0.01022899 0.01712021 -0.02075104 0.00667282 -0.00299916 0.00310215 0.00927090 -0.00368066 -0.00705089 0.02096883 0.00853621 0.01146856 -0.00259621 0.00001188 0.01297251 0.01482831 -0.01885552 0.01162204 -0.00295144 -0.00082294 0.00167734 -0.00029262 -0.00590933 -0.01521005 -0.01482735 -0.02198683 -0.02689987 -0.00578295 0.00204375 0.00477822 0.00946749 0.00557927 -0.01260582 0.01905941 0.02560633 0.01628533 0.02550522 0.00007752 0.01278026 0.00634251 0.02097171 -0.00032987 0.00421477 -0.00042547 0.00732873 0.00097288 0.01026027 0.01364461 0.00793517 -0.00242461 -0.01586382 -0.02507548 0.00077426 0.00327776 -0.00319821 0.01322295 0.01745675 -0.00513984 0.00013953 0.00726837 0.00740813 0.00765903 0.02454542 0.00992087 0.02514435 0.00034421 -0.00141061 -0.00947650 -0.00128867 0.00174760 -0.01499912 -0.00295863 -0.00905485 0.00497312 -0.00185869 -0.00161035 -0.01663511 0.00806959 -0.00739251 0.00099290 -0.00357896 -0.00972645 0.01211412 -0.00830987 -0.00910762 -0.00412661 0.02672071 -0.00961692 -0.02388849 0.01860002 0.02120079 0.03444906 0.01142321 0.00345200 0.01030414 -0.00574377 -0.01712913 -0.01968606 -0.01582523 -0.00478509 -0.00042055 0.00005845 -0.00123782 -0.00291399 -0.01114316 -0.01385825 -0.00160952 -0.00383956 -0.00403871 -0.00164515 -0.01827524 0.02374752 -0.01047663 -0.00676862 0.00311418 -0.00556818 0.02899443 -0.00536567 0.00137996 0.00843644 0.02772964 0.00137596 0.00127744 0.00376766 -0.00939805 -0.02127212 -0.01339319 0.00048952 -0.01529268 -0.00954608 -0.00681485 -0.01231082 -0.02610709 -0.00007851 -0.00659036 -0.00464597 -0.00632556 -0.01503321 -0.00798752 0.01719444 0.00007413 0.00745168 -0.00512471 0.00650821 0.01112118 0.00643315 0.00984771 0.00085479 0.00515380 -0.01255568 -0.00922465 0.01339869 -0.01336134 -0.01066850 -0.01743481 -0.01406195 -0.01386282 -0.00181473 -0.00705522 -0.00057418 -0.00553053 -0.00456026 0.00055967 -0.00737293 0.00306083 0.00592119 -0.00584623 0.03644810 0.00537717 -0.00969618 0.02131402 -0.00745847 -0.00034402 0.00259317 0.01597328 0.01080272 0.02644739 -0.00892111 -0.01647052 -0.00210112 -0.00170588 -0.01568218 -0.03081069 -0.00583122 -0.02052504 0.00347831 -0.00064128 -0.00945386 0.00004584 -0.00096176 0.01029085 0.00973012 0.02981843 0.01541231 0.00638476 0.01690897 0.01329104 -0.00618266 0.00372862 0.00758698 -0.00404682 0.01068527 0.02914007 0.00938793 0.01920589 0.00993177 0.01364483 -0.00792262 0.00006365 -0.01492209 -0.03356159 -0.00696109 0.00547836 0.00012158 0.00184860 0.00471559 0.00653093 0.00179332 0.00173816 0.01205544 -0.00624781 0.00856484 -0.00064208 -0.00188004 0.00046549 -0.00334352 0.00766623 0.00179683 -0.00656307 0.00433659 -0.00325100 0.02765935 -0.00327888 0.00707890 0.00129389 -0.00519089 -0.01877911 0.00868328 0.00220224 -0.00091082 0.00436586 -0.00373852 -0.00117022 0.00756437 -0.00566338 0.02332133 0.01818778 0.01569560 -0.00206144 -0.01137621 -0.00589664 -0.01060595 0.00376766 0.00879314 -0.01312019 -0.00367298 0.00627310 0.00860621 -0.00277077 0.01078060 0.00162274 -0.01030528 -0.00421944 -0.00560999 -0.00117055 -0.00446452 0.00616573 0.01526745 -0.02775288 -0.01166711 0.02115739 0.00125206 0.00403426 0.01628502 0.00095493 0.00556259 0.00907910 -0.00172412 0.00382840 0.00404629 0.01894427 -0.00243373 0.01027121 0.00300472 0.01456197 -0.00731198 0.02291580 -0.00595415 0.00438895 -0.00190744 -0.00032357 -0.00426614 -0.00016358 -0.01811742 -0.00615026 -0.01033506 -0.00786020 -0.00518006 0.01579883 -0.01069337 -0.00186696 -0.01052542 -0.01145916 0.00629083 0.00658116 0.01196204 0.00784027 0.00474343 0.02977556 0.01334146
0.00015764 -0.01118531 0.00268913 -0.01039460 -0.00009303 -0.01512045 0.00918300 0.00207939 0.00696137 0.01213103 0.01236804 -0.00554844 0.00792430 0.00496019 0.01682204 -0.01060519 0.00064786 0.00098148 0.00645035 -0.01470021 0.00527355 0.01724267 0.00199908 -0.00433795 -0.00609050 0.00691975 0.01563423 0.02169650 -0.00431246 0.00155153 -0.00275992 0.00430433 0.01022738 -0.00795576 0.00407255 -0.00662834 0.00391349 -0.00423907 -0.00778418 -0.01223160 -0.00884254 -0.00024228 -0.00149985 0.01313710 -0.01219979 -0.00341034 0.00753633 -0.00589502 0.00200750 0.00020369 0.00330818 -0.00706432 -0.00169119 -0.01752357 -0.01280126 0.01032927 0.01540119 0.01413568 0.01459400 0.00753087 -0.00532375 -0.01160402 -0.00615082 -0.00048429 0.01849406 -0.02096803 -0.00221200 -0.00494457 0.01104651 0.00515057 -0.01714957 0.00103833 -0.00161357 0.00650663 -0.01818241 0.00188988 -0.00501255 -0.00370140 0.00215466 -0.00948789 0.00137176 -0.01226761 -0.01215966 -0.00878554 0.01372310 0.01450090 0.00831120 0.00239231 0.00025771 -0.00788205 0.00312519 0.00462810 -0.00303843 0.01572989 -0.00675192 0.00936322 0.00513093 0.01462057 0.00766155 0.01052494 0.01477321 0.01995636 -0.00089155 -0.00891618 -0.00162585 -0.00378167 -0.02130716 -0.00821800 -0.00685809 0.00386992 -0.02473420 0.00188186 0.00961604 -0.00803297 -0.01888486 -0.00723594 0.00161710 0.00086826 0.00317135 -0.01543068 -0.01522749 -0.00518239 -0.00485557 -0.03113547 -0.01351813 -0.01486530 0.00396719 0.01774741 0.02724498 0.02370470 0.00539242 0.00024512 -0.00752635 -0.00343555 0.00257842 -0.01993864 -0.00693860 -0.00238997 0.00411077 -0.01345234 0.00001093 -0.00328002 -0.00702040 -0.00166622 0.01262332 0.00462431 0.00578708 -0.00281237 0.00405097 -0.01557697 -0.00516498 -0.01597254 -0.02959020 -0.01244124 -0.00211820 0.01529949 0.03019079 0.02414882 0.05599330 0.02126066 -0.00973304 0.00465376 -0.01020550 -0.00486255 -0.00952124 -0.01775793 0.00480409 -0.00961985 -0.00864805 0.00458000 -0.00142538 -0.01411851 0.01038562 -0.00793623 0.00127676 -0.00384524 -0.00758753 -0.00517536 -0.01528298 -0.03370417 -0.01993432 -0.01673519 -0.01227104 -0.00487717 0.02799066 0.03885541 0.03124207 0.04555059 0.01530011 0.00817297 0.00451897 -0.00179461 -0.02133797 -0.00594237 -0.01069597 -0.00397336 0.00742918 -0.00024051 -0.01132605 0.00183705 -0.00052675 0.00142051 -0.00247696 0.00588258 -0.01459071 -0.01283757 -0.02515010 -0.00603687 -0.02669899 -0.01732522 -0.03156835 -0.00306694 0.00638879 0.03196711 0.05488088 0.03856390 0.01283761 0.04705342 0.01741245 0.01208039 -0.03539046 -0.00055184 -0.01188810 -0.00736017 0.00445329 0.01206791 -0.00679082 -0.01044493 0.00578728 0.00134577 0.01222035 0.00127509 0.00035781 0.00272477 -0.00834568 -0.00174976 -0.02101049 -0.03253374 -0.01904084 -0.01836301 -0.00697253 0.00830335 0.02885726 0.04746513 0.04260193 0.03545729 0.03447101 0.00810079 -0.01904872 -0.01831996 -0.00357342 0.01979840 -0.01928949 0.01197373 -0.00146060 0.00933501 0.00530093 0.00594038 0.01577773 0.00958342 0.02255011 0.03153197 0.01262845 0.00384590 -0.01124915 -0.03159953 -0.03012646 -0.05885210 -0.03186864 -0.03026623 0.01958665 0.05450984 0.05298157 0.03562022 0.04949679 0.01429867 -0.03329461 -0.03505638 -0.00146930 -0.00296321 0.00687767 0.00091040 0.01121561 -0.02148618 0.00332614 0.02852687 0.01389790 0.03072485 0.02134452 0.00217675 0.02145354 0.00450115 -0.01815856 -0.02474552 -0.04124396 -0.06408719 -0.04613796 -0.00912984 0.05256012 0.04748053 0.06629793 0.02401466 0.04465612 -0.00761993 -0.01487926 -0.02320743 -0.01650405 0.00363821 0.00422917 -0.00317012 0.00793266 0.00165171 0.01640241 0.02798141 0.02719709 -0.00584261 0.01674028 0.01072517 -0.01263103 -0.00479112 -0.00170041 -0.03780089 -0.03984786 -0.06516271 -0.04451178 -0.01580118 0.04675119 0.06230571 0.04810804 0.04707369 0.03515734 0.01434047 -0.01440705 -0.01176835 -0.01304893 -0.00175821 0.03371523 -0.00026479 -0.00216567 0.00754024 -0.00310407 0.00026430 0.01277405 0.03704136 0.00844274 0.00141701 0.00024199 -0.00486896 0.00212746 -0.02991102 -0.07023487 -0.06808107 -0.03739173 -0.00918279 0.03909872 0.05099935 0.03596922 0.01740278 0.04961953 0.01608220 0.01381351 0.00331979 -0.00741883 -0.00232562 0.00197931 0.00518460 -0.01003300 0.01464928 0.01432574 -0.00257256 0.00681007 0.00319849 -0.00907421 -0.01683844 -0.02098154 0.00815533 -0.01146280 -0.03472096 -0.06265218 -0.05533937 -0.01503687 0.00389045 0.01088111 0.02788899 0.01455252 0.04082352 0.01899596 0.00775027 0.02544997 0.00629119 -0.00015494 0.00036542 -0.00627887 0.01381904 -0.00571222 0.00123605 -0.01593112 0.01247016 0.00801831 0.00591097 -0.00590756 -0.01940362 -0.00645698 -0.00426521 -0.02693852 -0.04926077 -0.03289077 -0.01587663 -0.02030587 0.00521701 0.02216694 0.04308951 0.03204841 0.01836821 0.01162016 0.01731850 0.01883912 0.01621196 0.00728475 0.00417681 0.00102761 -0.00147623 -0.00140777 0.00976823 0.01064035 0.02611501 0.01396405 0.00816159 0.00883214 0.01297973 -0.01790445 -0.01936076 -0.03021133 -0.03852187 -0.00287990 0.00169806 0.00749077 0.04006214 0.03726332 0.03613907 0.04792526 0.03043616 0.01279972 -0.00015424 0.02359440 0.00686870 0.01198887 -0.00398601 -0.00372677 -0.00427052 0.00646826 0.00655649 0.00383286 0.00521839 0.03283728 0.02002013 -0.00425801 0.00417065 0.00159484 -0.01611288 -0.02483891 -0.00295653 0.00440316 0.03252348 0.03270884 0.00676687 0.02292910 0.04449727 0.02316866 0.01146032 0.01677583 0.02627436 0.00842130 -0.00607930 0.00442989 0.00509585 -0.01364112 0.00109793 -0.00926149 -0.00004123 0.00982162 0.01078887 0.00679511 0.01445658 0.01549219 0.00642026 0.01120174 -0.01195763 -0.01530450 0.00169404 0.00957816 0.01927863 0.02372566 0.03643733 0.02345142 -0.00983904 0.01523509 0.00425786 -0.01789503 -0.00869903 -0.00096704 -0.00506171 -0.00346182 -0.01011063 -0.00816042 -0.00690958 0.00811727 -0.01516185 0.01522912 0.00271885 0.00752304 0.02772184 0.00702020 -0.01209460 0.01254588 0.00780392 0.00864414 -0.00963412 -0.00664941 0.00763059 0.02159444 0.03243362 0.00932150 0.01294770 -0.02150476 -0.00077476 -0.00831201 -0.00810987 -0.00013637 0.00842811 -0.00256237 0.00327768 -0.01607577 0.00973244 0.01125265 0.00750388 0.00079933 0.02044185 0.03087224 0.02473321 0.02006621 0.03304211 0.02149656 0.01343746 0.01769644 0.00720951 -0.01943807 -0.00988886 -0.00029738 0.00149379 -0.00560997 -0.00219512 -0.02004386 -0.01170097 -0.00550986 -0.01805333 0.00499826 0.00848180 0.00600700 -0.00223655 0.00641369 -0.00494967 0.00391718 0.01600391 0.00809176 0.00789115 0.01305945 0.02332082 0.02776461 0.00726709 0.02403056 0.00123503 -0.00958690 -0.01668781 -0.01404371 -0.00965259 -0.01260711 -0.00894883 0.01735539 -0.00494324 0.00446038 -0.02432260 -0.02067165 -0.00426558 0.00200916 0.00510715 -0.00375245 0.00335815 -0.00130238 -0.00267007 0.00095887 -0.00479773 0.00394210 0.02121487 0.01629951 0.00203863 0.02684121 0.02922422 0.00184146 0.00634101 -0.00605552 0.00772199 -0.02150496 -0.02349508 0.00655684 -0.00861216 -0.00347467 0.00908874 0.00204540 -0.01007311 -0.01559307 0.01568859 -0.00791840 0.00586984 0.00832883 0.00127519 -0.00956712 0.00200390 0.00709214 0.00264224 0.00687475 0.00372664 0.00532359 0.02507800 0.01509463 0.04861917 0.02403175 0.01284040 0.00644034 -0.00970054 -0.01408717 -0.00466805 -0.02000798 -0.01005171 -0.00988388 -0.00520458 -0.00915067 0.00002925 0.02022283 -0.00733343 -0.01130432 -0.00638189 0.00180724 0.00167547 0.00736887 0.00124517 0.00566121 0.01378991 0.00664785 0.00467612 0.00698357 0.03396111 0.02878577 0.01231981 0.02020737 0.01538552 -0.01346633 -0.01579607 -0.00992847 0.00586068 -0.00161743 -0.01357468 0.00366246 -0.01358392 0.01110648 0.00505184 0.01747519 -0.01167571 -0.00437267 -0.00545099 0.00252815 0.00888053 0.00057165 0.00605118 -0.00000508 0.01796311 0.00113336 0.01151801 0.01325216 0.01723895 -0.00986653 0.00810533 -0.01281048 -0.00088408 -0.02958539 -0.03539628 -0.02203175 -0.01306275 -0.00657707 -0.00583664 -0.00224859 -0.01717228 -0.00307955 0.00566924 0.03058588 -0.00566977 -0.00710809 0.01697050 0.00308139 -0.01716666 -0.00990870 -0.00499479 -0.00287367 -0.01528550 0.00535345 0.00965840 -0.00328196 0.00911924 -0.00081779 -0.00086790 0.00169691 0.00130957 -0.00511969 -0.01459921 -0.00361489 0.00902239 -0.00237411 -0.01267397 -0.01370743 0.00268741 -0.00159718 -0.01369756 -0.00477658 0.01076334 0.00317574 -0.00614257 -0.00386648 -0.01679216 0.01374996 -0.01928157 -0.01347564 -0.00846580 -0.00504395 -0.00755644 0.01121785 0.00273364 0.01355694 0.01000279 0.01683355 -0.00198027 0.00222969 -0.02003660 0.00101296 0.01920512 0.00547669 -0.00943712 0.01213159 0.01100666 -0.00358042 0.01070829 0.00489843 -0.01736488 0.00253612 0.00174117 -0.01445346 0.00034795 0.00828891 0.00277893 0.00854135 0.00013609 -0.00247523 -0.00384586 0.00312254 0.00792236 0.00128674 -0.00304092 -0.00460334 -0.00686159 -0.00503135 -0.02055924 -0.00300450 -0.00057776 -0.00353716 0.00024870 0.00741090 -0.00590380 -0.00784651 0.01037931 -0.00803110 -0.01289465 -0.00121499 -0.00026808 0.00736203 0.02907464
